,wavelength,50uM,20uM,10uM,2uM_10mm,1uM_10mm
0,260.0,0.10838587672334558,0.24214238568474267,0.9672079222196691,0.19858137063419115,-0.2906343060661766
1,259.9,0.1323446960018382,0.28375392635569846,1.1042188286994483,0.17628588867187495,-0.30564786879595585
2,259.8,0.15455577435661766,0.2832560173483456,1.1457460460707722,0.1216604520909926,-0.2772750861672795
3,259.7,0.17226430974264703,0.28748222081801467,1.1231971525160844,0.1279666302849265,-0.3452035271139704
4,259.6,0.16990173150275734,0.2285643267463235,1.009426189108456,0.11210180376838234,-0.3984958524816176
5,259.5,0.18037123207720587,0.27378169232536764,0.993638056640625,0.1400489545036765,-0.4049847311580881
6,259.4,0.1748909403722426,0.19939047277113964,1.0466280227481617,0.0663423598345588,-0.48545726677389706
7,259.3,0.19814240762867646,0.2148979291130515,1.0062825361902574,-0.030091371783088235,-0.6554008386948529
8,259.2,0.2379769752987132,0.20084605353860288,1.0584505508961395,-0.007575043083639702,-0.525382341452206
9,259.1,0.21935967566636028,0.17101568244485288,1.136681692899816,0.02012716854319854,-0.29834788028492637
10,259.0,0.23125566145450363,0.20911174460018386,1.1840755231502758,0.05547067727481621,-0.27113956227022046
11,258.9,0.24339727699908087,0.15766850873161767,1.1126803505859375,0.10091692038143382,-0.22456499310661765
12,258.8,0.2531954034926471,0.1687048224954044,1.0927143198529412,0.1289082404641544,-0.16086877872242653
13,258.7,0.2734263298483456,0.18952665441176472,1.0906082450597425,0.13755940946691167,-0.21728508157169124
14,258.6,0.26616392543658085,0.1958990866268382,0.9668453320312498,0.16458904239430144,-0.18447127182904413
15,258.5,0.2411409461167279,0.15560660328584555,0.9749821289062499,0.15206904009650735,-0.24690665211397053
16,258.4,0.22587601964613968,0.1343009162454044,1.0419094956858914,0.1821242733226103,-0.25991653262867653
17,258.3,0.19495947611443015,0.07822993738511029,0.9655118192784926,0.18118266314338238,-0.28516132238051467
18,258.2,0.19409480893841907,0.07515414464613963,0.9830068962545955,0.10876701803768382,-0.3042183880974266
19,258.1,0.21559322691865804,0.03716449046415441,0.9930795151654411,0.1716681841681985,-0.14565043083639706
20,258.0,0.21085117365579037,0.025479690372242663,0.956252317899816,0.10910029584099265,-0.19541322380514697
21,257.9,0.2249602686121323,0.05278839326746319,0.9179177412683821,0.08859969554227935,-0.2786644129136031
22,257.8,0.23734511270680145,0.14855155388327212,0.9784417934283088,0.04739370978860297,-0.3616947552849263
23,257.7,0.2178460322840073,0.08968385225183827,0.8683087379365808,0.031890268841911776,-0.46003579963235297
24,257.6,0.22533096989889703,0.1168660701976103,0.8434927923943013,0.11108390107996322,-0.36303589728860297
25,257.5,0.2356334300321691,0.11607905273437501,0.8348564803538603,0.07403384937959562,-0.4396416073069853
26,257.4,0.2426924948299632,0.11524786592371325,0.9423610581341911,0.12815736155790433,-0.3231911305147059
27,257.3,0.22028305595128675,0.04719294002757352,0.8225806140854779,0.18788837316176463,-0.32340796185661763
28,257.2,0.21695084007352936,0.031354213579963215,0.8075449666819853,0.14954536420036768,-0.2732837833180146
29,257.1,0.22129501585477934,0.021823673023897035,0.7810003934972426,0.1452107450597427,-0.1803153377757353
30,257.0,0.24172149195772058,-0.015029624310661748,0.9164376665900736,0.09714646426930139,-0.26873434053308837
31,256.9,0.2500098298483455,-0.053230086741727904,0.8833391653262866,0.0696891917509191,-0.2771546243106618
32,256.8,0.21782370668658083,-0.07751519703584565,0.7905674741498161,0.08511834788602939,-0.28799619140625016
33,256.7,0.18908624586397058,-0.09513073586856619,0.614116552734375,0.12229488453584555,-0.2732355985753675
34,256.6,0.18079903228400734,-0.09438588005514705,0.5970924816176469,0.13625039062499997,-0.2732436293658089
35,256.5,0.14445560983455882,-0.11582005974264703,0.6206230991498162,0.1916829216452206,-0.2923970645680148
36,256.4,0.14717796748621323,-0.10077638154871321,0.7591082579848345,0.18301769875919113,-0.21886714728860301
37,256.3,0.16135154165900734,-0.07621019358915439,0.8639532387408086,0.19656764993106612,-0.18925762293198542
38,256.2,0.1503231703469669,-0.11585419060202201,0.6549005204503676,0.17970499770220588,-0.1468630801930148
39,256.1,0.14393585707720585,-0.0902279383042279,0.6070438355928308,0.2125991153492647,-0.15007941176470574
40,256.0,0.1347965766314338,-0.14184785156250002,0.5139264188878676,0.25032776884191177,-0.08887675781249993
41,255.9,0.10309898251378674,-0.1815440487132353,0.36363017578125,0.26264900907628674,-0.12897850988051474
42,255.8,0.12821413924632352,-0.11720737879136026,0.3492020576746324,0.24824377872242648,-0.3168066521139707
43,255.7,0.11552364326746323,-0.16668307100183824,0.2247336397058823,0.23987770278033094,-0.3109361443014706
44,255.6,0.09634491910615806,-0.18034344554227943,0.16897987706801468,0.21157920496323523,-0.3194046128216913
45,255.5,0.08824296783088234,-0.18349753848805145,0.08546367187500005,0.1926144933363971,-0.4519247012867646
46,255.4,0.09769834018841911,-0.1966057961856617,0.15504203871783087,0.1654965217141544,-0.49759179113051466
47,255.3,0.10360948380055145,-0.21155109719669113,0.11946603860294117,0.20770434857536763,-0.4719976619944853
48,255.2,0.10606382185202204,-0.21300065487132355,-0.01181730813419118,0.2013801011029411,-0.49373299632352946
49,255.1,0.11822809225643381,-0.17892199563419117,-0.08651972081801475,0.18935600011488965,-0.5283457031250001
50,255.0,0.11154286075367648,-0.21925664062499994,-0.2038495691636029,0.12274059340533086,-0.5553171128216912
51,254.9,0.11259184260110293,-0.19813766946231617,-0.15857598805147058,0.18555141314338236,-0.49024361787683823
52,254.8,0.13180984535845586,-0.172463232421875,-0.1888119140625,0.22918671300551466,-0.40568340992647056
53,254.7,0.10972043347886029,-0.19831233915441174,-0.1956099781709558,0.330960920266544,-0.24815945542279422
54,254.6,0.13982449391084556,-0.2082604808134191,-0.09020986902573525,0.35761310604319846,-0.1176350183823529
55,254.5,0.15089574161305144,-0.23897223115808822,-0.10509895450367648,0.30510177504595587,-0.14714415785845603
56,254.4,0.14897814947150734,-0.21756615923713238,-0.05075459558823523,0.3472694479549632,-0.1532997587316178
57,254.3,0.12916113005514704,-0.2284017032398897,-0.08859166475183823,0.362114364085478,-0.15346840533088224
58,254.2,0.12427078021599264,-0.1735473891314338,-0.2166185259650735,0.32212504308363965,-0.2605991498161765
59,254.1,0.15340961994485292,-0.10425973690257352,-0.08700959903492655,0.28030269416360293,-0.212185529641544
60,254.0,0.16530129319852938,-0.04138065544577203,-0.04298480583639703,0.2931579819623161,-0.2612014590992647
61,253.9,0.1386658114659926,-0.013389335363051487,-0.1266375344669118,0.30473838177849255,-0.32763617302389714
62,253.8,0.1177071348805147,-0.00031520852481621304,-0.1623103056066177,0.3199045295266545,-0.372122736672794
63,253.7,0.08744743772977939,-0.014710400390625,-0.22690596852022057,0.4112527630974265,-0.24827590188419102
64,253.6,0.10403704308363967,-0.06561958869485292,-0.2270826459099264,0.3368494973575367,-0.2536123621323531
65,253.5,0.13913821468290438,0.004585581341911725,-0.01827807904411765,0.31864771082261023,-0.3832373506433824
66,253.4,0.1382558396139706,0.01845877182904413,0.05036108685661764,0.2976231014476103,-0.32377336282169117
67,253.3,0.1494273999195772,0.06544491900275738,0.004714073988970622,0.2823405072380514,-0.335341716452206
68,253.2,0.15954996231617644,0.07569823069852938,-0.06295738166360293,0.235141544117647,-0.3877586856617648
69,253.1,0.1573248712086397,0.049136391314338224,-0.1654342830882352,0.2946476935891544,-0.3434849379595588
70,253.0,0.14716584099264704,0.08298215762867643,-0.0796574103860295,0.27861020507812495,-0.31350198184742645
71,252.9,0.1573608170266544,0.08074156709558823,-0.036363419117647094,0.3334464499080882,-0.3269174172794117
72,252.8,0.15343290923713232,0.07264853802849264,0.04402077780330882,0.2679473230698529,-0.2981471105238971
73,252.7,0.2023173104090073,0.19944468060661766,0.2245409007352942,0.27106326976102935,-0.23774753561580883
74,252.6,0.18016560368795953,0.14772639016544117,0.2526647288602941,0.26688123563878674,-0.23070051700367647
75,252.5,0.17095215889246324,0.09879679170496322,0.21079620289522052,0.22054759018841907,-0.25954711626838245
76,252.4,0.16458647254136027,0.06722775448069855,0.18532253561580883,0.18179300321691177,-0.2194212718290441
77,252.3,0.1667766289073989,0.04867462086397062,0.16514517463235304,0.20911776769301463,-0.18125895565257366
78,252.2,0.1703973115808823,0.12846453929227938,0.2876066980698529,0.14844514590992647,-0.1697668945312498
79,252.1,0.13973711891084556,0.13564607364430148,0.30923361672794125,0.08131175321691184,-0.2414537454044116
80,252.0,0.1508339045266544,0.20746744025735295,0.31846501034007346,0.10092294347426466,-0.20392586167279408
81,251.9,0.1372985693933823,0.14742122012867645,0.3701351160386029,0.002238582835477895,-0.3009097024356619
82,251.8,0.11697424494485294,0.12251974666819852,0.33056741153492647,0.009628917738970521,-0.3424449505974267
83,251.7,0.10131243681066174,0.17513748563878673,0.2914815544577205,0.02671643210018385,-0.33526943933823533
84,251.6,0.09199832605698528,0.1987399787454044,0.2453085248161765,-0.037979615693933856,-0.3959902458639705
85,251.5,0.09274840188419116,0.21144870461856613,0.3289411764705882,-0.06171260914522055,-0.3669629538143382
86,251.4,0.07090465188419118,0.24990856158088237,0.2781102883731617,-0.12853280101102935,-0.493853458180147
87,251.3,0.0601345588235294,0.1688879245174632,0.05496674517463238,-0.2598322093290441,-0.7129856215533088
88,251.2,0.08082115222886027,0.1779141314338235,0.18211021943933825,-0.15710635340073525,-0.6152549172794116
89,251.1,0.07444655170036765,0.13255221162683825,0.10230423943014706,-0.09027210765165447,-0.43022149011948546
90,251.0,0.09147399574908088,0.12486875287224262,0.20747948644301467,-0.09873656077665435,-0.42021110983455867
91,250.9,0.0839914673713235,0.10570126378676464,0.1801507065716911,-0.08106480641084557,-0.3324265395220589
92,250.8,0.045338951746323526,0.03624697265625003,0.10921875000000006,-0.08933652056525737,-0.39622313878676463
93,250.7,0.04774457502297794,-0.025226720473345572,0.050377148437500005,-0.11696846277573525,-0.3819403779871324
94,250.6,0.061862704618566154,0.032074977022058804,0.09661040900735292,-0.15278980353860294,-0.32261291360294103
95,250.5,0.05959786109834557,0.0013371266084558821,0.06188928653492645,-0.13391945369944855,-0.23915693933823529
96,250.4,0.08693569167049632,-0.04645410730698527,-0.05635607192095585,-0.17423201401654406,-0.24310005744485286
97,250.3,0.11222363085937498,0.016870683019301457,0.13973575367647056,-0.14790909064797803,-0.188101189108456
98,250.2,0.11638020737591911,0.006543086511948553,0.08930238970588239,-0.131048446116728,-0.19465431410845582
99,250.1,0.10253970220588232,0.015621895105698549,0.014134191176470568,-0.10584180261948525,-0.1594995289522058
100,250.0,0.11456357833180145,-0.04662275390624998,0.06851468864889704,-0.062096079388786724,-0.05398698874080876
101,249.9,0.11217753412224261,0.0372889677159926,0.09329369255514695,-0.022277412683823626,-0.1569377068014706
102,249.8,0.07791761994485293,-0.020562838924632353,0.14622463235294114,0.0478233570772059,0.0017025275735293311
103,249.7,0.059966875919117646,-0.11724150965073524,0.02911563074448532,0.0107211052389705,-0.0575205365349266
104,249.6,0.06095747392003675,-0.11985151654411763,0.17041578239889704,-0.0031460621553308517,-0.17560126378676466
105,249.5,0.04826537178308823,-0.1188737678079044,0.09931678538602938,0.030448741957720613,-0.17762100758272067
106,249.4,0.02339586086856617,-0.13223700310202205,0.05469771369485292,-0.0255559828814338,-0.3082618910845588
107,249.3,0.00746702895220587,-0.19962537339154415,-0.0011925723805147283,-0.049184576056985216,-0.33619298023897043
108,249.2,0.021074480583639706,-0.21028424000459556,0.04898380629595594,-0.03868230985753683,-0.3282103745404413
109,249.1,0.02441328170955882,-0.15568891888786762,0.11206847598805149,-0.03916817267922793,-0.4197132008272059
110,249.0,0.02659042899816175,-0.16787965877757352,0.10333539292279412,-0.09325153090533081,-0.4359233513327204
111,248.9,0.03988644657628675,-0.19432304400275732,0.12533775103400735,-0.04095903894761029,-0.3514032973345587
112,248.8,0.026833922564338225,-0.24415911793428308,0.03219503733915439,-0.008863984949448534,-0.24625214269301457
113,248.7,-0.0020730682444852918,-0.2965921487247243,-0.05127298311121325,-0.03603214901194862,-0.2428470875459559
114,248.6,-0.006514255974264702,-0.31826925982306986,-0.034599054457720595,0.019978598920036738,-0.1834473460477941
115,248.5,0.017809883961397058,-0.34885291906020216,-0.11217689165900732,0.028161974379595608,-0.033219364659926365
116,248.4,0.04261538947610294,-0.3055370438878677,0.02171967428768382,0.03015361040900736,0.02390766314338241
117,248.3,0.05174069634650735,-0.3094341857192095,0.02824549460018385,0.13598938993566168,0.07262243795955878
118,248.2,0.03273237752757352,-0.33906198012408084,0.03786116153492644,0.1393442526424632,0.02128159466911753
119,248.1,0.021883261488970587,-0.38974168859145214,-0.0009512471277573457,0.20361466854319848,0.09336195427389692
120,248.0,0.022470151654411765,-0.33383995863970584,0.13506424287683824,0.21659844898897054,0.1862219841452206
121,247.9,-0.02175886454503676,-0.3497535722081801,-0.03933762235753679,0.15437789234834556,0.12959688074448528
122,247.8,-0.04305876941636028,-0.30761159782858455,-0.04945400907628675,0.0779307904411765,0.09302466107536762
123,247.7,-0.062223367417279386,-0.2777689797794117,0.09264681238511033,0.013090188419117698,-0.06077300666360297
124,247.6,-0.06163230124080882,-0.24719776826746323,0.10282383157169118,0.06401142290900734,-0.16057565487132364
125,247.5,-0.03852691406249999,-0.17094541302849262,0.22537329216452204,0.07033767807904413,-0.11781571116727943
126,247.4,-0.02491713350183823,-0.17891195714613967,0.2111182375919117,0.053993011833639706,-0.04808435776654417
127,247.3,-0.028898799402573516,-0.20914989085477936,0.21137602596507354,0.004262342026654383,-0.0682938419117648
128,247.2,-0.0637885684742647,-0.2796361385569853,0.13241729434742647,0.023897624655330876,-0.09225370519301479
129,247.1,-0.06567098575367646,-0.3111369140625,0.25741052447150736,-0.017497084673713293,-0.1745492302389706
130,247.0,-0.08810660500919117,-0.34125840130974266,0.2857989671415441,-0.06520600298713236,-0.1554640567555147
131,246.9,-0.09831614889705881,-0.3380079388786765,0.27946146886488965,-0.06989799230238977,-0.15503440946691188
132,246.8,-0.11011819852941175,-0.36458985523897053,0.3080081181066176,-0.13650336052389703,-0.15156109260110281
133,246.7,-0.1222984983915441,-0.4714234604779412,0.19312886546415442,-0.15425743049172788,-0.25283739085477935
134,246.6,-0.12548591911764706,-0.4369894387637868,0.17914083467371322,-0.1626174833409927,-0.26255866268382355
135,246.5,-0.1301534145220588,-0.43893088235294114,0.16078445542279415,-0.2094128992417279,-0.2779858111213236
136,246.4,-0.12366132352941175,-0.37963152573529413,0.11418659696691175,-0.25636290785845595,-0.21657837201286767
137,246.3,-0.13973976907169117,-0.38232786362591914,0.07856723058363971,-0.2343043342141544,-0.20374516888786776
138,246.2,-0.12131552964154413,-0.35615953297334557,0.03382568933823529,-0.23423808019301479,-0.10467332261029424
139,246.1,-0.14305391567095585,-0.439189473805147,-0.01982320312500002,-0.26539152401194854,-0.0773365119485294
140,246.0,-0.1307444806985294,-0.4001843261718749,0.05210778377757354,-0.2608220042509192,-0.051822690716911875
141,245.9,-0.13594843290441175,-0.4095462201286764,0.07520915556066177,-0.275006387867647,-0.08530707146139711
142,245.8,-0.16391919416360293,-0.4085612436810661,-0.1429095220588235,-0.33313124138327205,-0.1607202090992645
143,245.7,-0.18161552274816173,-0.3865982364430147,-0.10507084673713238,-0.265654532398897,-0.10474559972426468
144,245.6,-0.14777537798713233,-0.3413607938878677,0.05810678423713229,-0.26253457031249994,-0.23997206456801473
145,245.5,-0.16648872587316174,-0.343780069508272,0.027437195542279323,-0.26742532169117644,-0.30732228860294114
146,245.4,-0.15528416704963235,-0.32188612706801467,0.05656487247242642,-0.22070619829963242,-0.3764633789062501
147,245.3,-0.18873803079044113,-0.36433487764246325,-0.0303523724724264,-0.18852481330422785,-0.37119919577205873
148,245.2,-0.2269035592830882,-0.3449766572840073,-0.006388493795955807,-0.19935634191176468,-0.4049606387867647
149,245.1,-0.2438549517463235,-0.3973976418887868,-0.00475021254595584,-0.21900166302849258,-0.4108351619944852
150,245.0,-0.26385563534007345,-0.4262442411534926,-0.021253486902573497,-0.27868047449448524,-0.38648982077205885
151,244.9,-0.2673867738970588,-0.4281595846737132,0.004216164981617628,-0.3349642693014706,-0.4366380916819854
152,244.8,-0.2802874356617647,-0.41689238568474263,-0.010544427849264664,-0.3332557186351103,-0.29308771254595595
153,244.7,-0.28412454733455883,-0.5072448012408088,-0.12589870174632362,-0.34836565085018373,-0.3079647518382352
154,244.6,-0.3018509110753676,-0.5902008588005514,-0.16070013212316175,-0.376838818359375,-0.439577360983456
155,244.5,-0.30375742072610284,-0.6415156020220587,-0.29584628906249993,-0.40960243566176463,-0.5690136259191176
156,244.4,-0.2968686086856617,-0.7156237362132353,-0.4549081399356617,-0.4493709099264705,-0.6535055721507351
157,244.3,-0.3215306039751838,-0.7818141133386948,-0.5437700407858456,-0.4945059599034926,-0.6549551298253677
158,244.2,-0.3410916017922794,-0.8034601051240807,-0.5760156721047794,-0.4974331830193014,-0.609059162454044
159,244.1,-0.364185424632353,-0.7882088309972426,-0.6615741073069852,-0.4620194048713235,-0.5605853113511029
160,244.0,-0.35531132088694845,-0.726524128848805,-0.661886906594669,-0.44853972311580875,-0.5751089958639706
161,243.9,-0.36275931686580876,-0.7351558231847426,-0.6645503182444853,-0.483756746897978,-0.55940478515625
162,243.8,-0.39141791532628667,-0.7686319723690256,-0.8251858025045955,-0.4235117647058823,-0.4501338350183824
163,243.7,-0.4112130106847426,-0.7880785314223345,-0.8939815688189338,-0.38174362362132347,-0.40120624425551454
164,243.6,-0.39341332582720584,-0.7878851901424632,-0.8773606433823529,-0.43356029124540435,-0.494359397977941
165,243.5,-0.4171279287683823,-0.7785325315946691,-0.9776836868106618,-0.3664550063189338,-0.46591433823529416
166,243.4,-0.42234513177849253,-0.81782417767693,-0.9933336896829044,-0.392532990579044,-0.458433656939338
167,243.3,-0.44233360857077203,-0.8361359860409006,-1.0603418020450366,-0.4157700827205882,-0.42031952550551455
168,243.2,-0.43485051803768376,-0.8204056752642463,-1.106085184397978,-0.3767605181525735,-0.3252670898437499
169,243.1,-0.4286459293428308,-0.8245053937844667,-1.071231553883272,-0.4459477855009191,-0.3838476907169118
170,243.0,-0.4179967799862132,-0.7982880753102022,-1.0368983185891543,-0.4590721047794117,-0.4386257123161765
171,242.9,-0.42629387143841907,-0.7721590955307904,-1.099970540556066,-0.46830952148437494,-0.3854056640625
172,242.8,-0.4322797817095587,-0.7238111270680146,-0.993589470358456,-0.4377985409007353,-0.5070440314797793
173,242.7,-0.43008400298713234,-0.7580841314338236,-0.9539205778952206,-0.4285510857077206,-0.5179980296415442
174,242.6,-0.42489571082261024,-0.7395821941061581,-1.0056489068244483,-0.39145686465992646,-0.5239006606158089
175,242.5,-0.43388561856617636,-0.7871612143841911,-0.8965197001378674,-0.3780153291590073,-0.571202016314338
176,242.4,-0.4121440202205882,-0.8107360012637866,-0.8017170220588234,-0.4877119111902573,-0.6434309455422792
177,242.3,-0.45068314108455876,-0.9298872328814338,-0.9759739315257351,-0.5387596306295956,-0.7212051355698529
178,242.2,-0.44455267658547787,-0.9132801605583639,-0.8451334828814336,-0.5655142089843751,-0.6767868336397059
179,242.1,-0.44821142440257344,-0.9338166986443013,-0.9310826160386029,-0.6292425465303308,-0.6186559570312499
180,242.0,-0.4365774592141543,-0.8997667494829963,-0.7709659208409924,-0.6271605641084557,-0.6111351217830882
181,241.9,-0.41003625896139706,-0.8897477360983456,-0.714235212545956,-0.6812539608226104,-0.6999677102481618
182,241.8,-0.42089669841452193,-0.9131323940142461,-0.836096434397978,-0.6793687327665442,-0.902713045726103
183,241.7,-0.40864275620404406,-0.8895545955882354,-0.9487575827205883,-0.627823104319853,-0.8296689912683824
184,241.6,-0.41872493175551473,-0.9270210437729781,-0.9972290245863968,-0.5971896541819853,-0.7803960765165441
185,241.5,-0.43014696438419114,-0.9146010248161766,-1.0075758949908087,-0.5525163746553308,-0.8232323127297793
186,241.4,-0.4138772254136029,-0.9203024844898896,-0.879239045266544,-0.47584240291819846,-0.8016214556525735
187,241.3,-0.3979537741268382,-0.8713548167509191,-0.6833238970588233,-0.3998510483685661,-0.7038024126838234
188,241.2,-0.42153297794117645,-0.8462786735983455,-0.5503018841911764,-0.32956557042738965,-0.6424672506893382
189,241.1,-0.41454056870404404,-0.7823475585937498,-0.4222308536305147,-0.33119983628216915,-0.49694932789522056
190,241.0,-0.40500561121323525,-0.7818135110294117,-0.45298878102022044,-0.37605581629136026,-0.5399180721507354
191,240.9,-0.41032279756433815,-0.8283720186121323,-0.49992072035845586,-0.36919149816176466,-0.649333576516544
192,240.8,-0.41980555491727933,-0.850902401194853,-0.4606180319393381,-0.40360945829503675,-0.5818026596966911
193,240.7,-0.42152735638786754,-0.8319537511488969,-0.40957834329044124,-0.38317711971507346,-0.6199408835018382
194,240.6,-0.4162109731158088,-0.7953855468750001,-0.3365302734375,-0.3622990722656251,-0.7596886833639704
195,240.5,-0.4111780767463235,-0.7487487390854779,-0.26893109489889694,-0.4028585793887867,-0.7762682502297794
196,240.4,-0.4207644312959558,-0.7661173311121323,-0.29064233685661767,-0.46596854607077215,-0.7929843405330883
197,240.3,-0.41548097426470587,-0.8143261661305146,-0.2649277458639705,-0.555630313648897,-0.8240755457261029
198,240.2,-0.44372365808823516,-0.7982425005744483,-0.2734805376838235,-0.5156550465303308,-0.7867163085937501
199,240.1,-0.44347630974264696,-0.8634424804687499,-0.15702203010110294,-0.5578187040441176,-0.9254160903033086
200,240.0,-0.45443753561580874,-0.8918754940257351,-0.10179026884191168,-0.5232541819852942,-0.9621569565716912
201,239.9,-0.49443649356617647,-0.9274739803538603,-0.22934732881433834,-0.4875191722196691,-1.1674159294577204
202,239.8,-0.5026110351562499,-0.9119504624310661,-0.19385926585477936,-0.4077372845818015,-1.0973954676011028
203,239.7,-0.49566761374080875,-0.91368511316636,-0.16133857996323514,-0.4292457490808822,-1.1590719381893382
204,239.6,-0.5056651447610294,-0.9516366210937499,-0.24861721047794116,-0.4434923713235294,-1.1909862994025733
205,239.5,-0.5397470163143381,-0.9254441980698528,-0.37098637982536764,-0.4604493853400735,-1.1167055032169118
206,239.4,-0.5578957996323529,-0.9113059914981617,-0.3758209156709559,-0.4903761259191176,-1.1241901999080883
207,239.3,-0.5483961776194852,-0.894236546415441,-0.39682143267463227,-0.48631455365349263,-1.0458297621783086
208,239.2,-0.58586302734375,-0.9037831485523896,-0.5219531939338236,-0.43038812902113976,-1.0036159122242645
209,239.1,-0.5968106008731616,-0.8805560948988969,-0.6256869140625,-0.4119494341681984,-0.9309613511029409
210,239.0,-0.5748496013327205,-0.818642715992647,-0.4942871208639706,-0.3852711483226102,-0.9216857881433824
211,238.9,-0.5729647748161764,-0.8337907944623162,-0.5145568359374999,-0.34889367532169097,-0.7644629882812501
212,238.8,-0.5979734593290441,-0.8252460334329044,-0.5508600241268381,-0.35073674172794117,-0.8685580939797792
213,238.7,-0.6137298701746323,-0.8153681611902572,-0.5447646541819852,-0.3178185317095587,-0.7981682157628673
214,238.6,-0.6462385098805147,-0.8543957950367648,-0.7267102424172794,-0.2535420927159926,-0.6698040613511028
215,238.5,-0.6237812074908088,-0.8617660529641543,-0.67818017578125,-0.32746953412224256,-0.6314851447610292
216,238.4,-0.6372472369025735,-0.8462144272748161,-0.5997073069852941,-0.3416860409007353,-0.8014327320772054
217,238.3,-0.6401407306985293,-0.7955802935431985,-0.4975074678308824,-0.4332631519990808,-1.0358796128216914
218,238.2,-0.6350178894761028,-0.7908581887637868,-0.4692190085018383,-0.49548772403492647,-0.9864380514705884
219,238.1,-0.6448580170036765,-0.7118412339154412,-0.4398664694393382,-0.5515386259191175,-0.9280060202205882
220,238.0,-0.6749236902573528,-0.7437897259880515,-0.5779117417279411,-0.5651889619715074,-0.8550623506433823
221,237.9,-0.6374343543198528,-0.7185529670266545,-0.4316750631893382,-0.6189751809512867,-0.9858678653492644
222,237.8,-0.6584051573988969,-0.7364576143152575,-0.6089025620404412,-0.6285779986213235,-1.0262065257352944
223,237.7,-0.6726308995863969,-0.7790147805606618,-0.633448673023897,-0.6098622414981617,-1.132333421415441
224,237.6,-0.6976299471507351,-0.7148025878906249,-0.5805578871783087,-0.6340549977022059,-1.2029722541360293
225,237.5,-0.6970629733455881,-0.7530672966452204,-0.6030601619944853,-0.6060576545266545,-1.2138057904411768
226,237.4,-0.7148198540900734,-0.7649167279411765,-0.6579666762408087,-0.6287285759420956,-1.2661986672794117
227,237.3,-0.7288994358915439,-0.7718452923943014,-0.7793360121783086,-0.608390599149816,-1.2302247414981615
228,237.2,-0.7395016854319852,-0.7596143985523895,-0.8061106675091909,-0.6419211569393382,-1.2779517290900735
229,237.1,-0.7675299471507353,-0.7745356071920956,-0.848481117876838,-0.5748600413602941,-1.187167658547794
230,237.0,-0.8026534122242646,-0.8469612907858455,-0.8667310891544117,-0.5296808220358457,-1.044958421415441
231,236.9,-0.818540724954044,-0.776974959788603,-0.8262398437499999,-0.5290303280101102,-1.1321567440257354
232,236.8,-0.8602984260110293,-0.7690827004825368,-0.9842014763327206,-0.4420970214843749,-0.9410600700827205
233,236.7,-0.8733050942095587,-0.7465362563189337,-1.006944674862132,-0.46024259248621313,-0.9557443704044117
234,236.6,-0.8500238327205881,-0.6854239487591911,-0.8527012982536765,-0.4682312212775735,-0.9356754250919117
235,236.5,-0.8418067279411762,-0.6727995461856616,-0.7543923770680148,-0.5082888039981618,-0.8006979147518382
236,236.4,-0.8715439418658086,-0.764471019071691,-0.7376481789981617,-0.5581319048713234,-0.8358366383272059
237,236.3,-0.9357300344669117,-0.8934455135569852,-0.9255044289981615,-0.5776487333409928,-0.8647514993106618
238,236.2,-0.9521008007812499,-0.9052066061580882,-0.8638520507812499,-0.6328644330193015,-0.7324964269301468
239,236.1,-0.9503492853860293,-0.9494381922104778,-0.8370372414981616,-0.6904010311351101,-0.9017091969209557
240,236.0,-0.9675921955422793,-1.0087817181755514,-0.9143175379136029,-0.6572378820082719,-0.8896308880974262
241,235.9,-0.9818404239430147,-1.01123110926011,-0.8876191750919118,-0.6058749540441175,-0.7929803251378676
242,235.8,-0.9929662810202204,-1.0412341423483455,-0.9912203871783087,-0.6177806008731618,-0.7659767922794118
243,235.7,-0.9970627872242646,-1.0490962861902573,-0.9654696576286763,-0.5918210707720588,-0.7213898437500001
244,235.6,-1.0517998517922793,-1.1053118192784925,-1.0181556583180145,-0.5841857967601104,-0.6233539694393381
245,235.5,-1.0764913200827204,-1.0891679227941178,-1.028342715992647,-0.622854052734375,-0.8246658088235291
246,235.4,-1.0616994071691175,-1.0667459558823529,-1.0066435202205881,-0.6992830853630514,-0.8887153779871324
247,235.3,-1.094304416360294,-1.08133388671875,-1.1011418313419117,-0.7779808162913602,-1.0536838752297792
248,235.2,-1.089302840073529,-1.0701670726102943,-0.906905118336397,-0.8803332404641545,-1.1560202378216913
249,235.1,-1.1209995668658086,-1.0896638241038605,-0.9949988740808823,-0.8621696001838235,-1.1875129825367645
250,235.0,-1.1481323954503675,-1.1200061580882352,-1.1221624253216909,-0.8953447954963234,-1.1211826688878674
251,234.9,-1.1736727182904412,-1.182531884765625,-1.1925282111672793,-0.8658336483226103,-1.0986964556525736
252,234.8,-1.1982083892463231,-1.2869622759650734,-1.2584850930606617,-0.8327668686810661,-1.1367142176011025
253,234.7,-1.2209989694393382,-1.3498373420266543,-1.2852155790441175,-0.9062104549632353,-1.218873219209559
254,234.6,-1.242999319852941,-1.320545033892463,-1.2952580824908089,-0.9387853486902573,-1.2267875631893383
255,234.5,-1.289210897288603,-1.3168368164062498,-1.3588217888327205,-0.9720629365808824,-1.204566366038603
256,234.4,-1.3068649839154411,-1.345022883157169,-1.2951898207720587,-1.0197778779871323,-1.2969084099264707
257,234.3,-1.3393158019301468,-1.3959180175781247,-1.4382703986672793,-1.0738351361443013,-1.2139583754595584
258,234.2,-1.3352449942555147,-1.4138186494715073,-1.3927558938419118,-1.1207389677159922,-1.183678280101103
259,234.1,-1.345277057674632,-1.4434141199448527,-1.4807572954963233,-1.2022976677389703,-1.2380306698069852
260,234.0,-1.335098833869485,-1.4932130514705884,-1.4027622587316178,-1.3223439309512866,-1.2451459501378672
261,233.9,-1.3509074448529408,-1.502681353400735,-1.4395553251378674,-1.3080912856158087,-1.267700425091912
262,233.8,-1.3645228469669115,-1.4770551011029407,-1.4127686236213235,-1.3823499971277573,-1.2794253791360293
263,233.7,-1.327309770220588,-1.3635097627527573,-1.2178091394761028,-1.5014385885799633,-1.4012886086856617
264,233.6,-1.349521330422794,-1.4102349092371322,-1.2831034811580881,-1.5421406422334558,-1.4441690142463235
265,233.5,-1.3233538028492646,-1.3707876665900736,-1.1740373161764708,-1.5462483915441176,-1.5473044404871323
266,233.4,-1.3401855365349262,-1.4134371869255515,-1.057245530790441,-1.6028172794117643,-1.619272369025735
267,233.3,-1.4296405112591908,-1.5033780244715071,-1.2907889476102938,-1.6015865607766544,-1.5022115521599264
268,233.2,-1.4308306744025732,-1.4817792135799632,-1.2951376206341911,-1.6424753303079043,-1.5267536477481616
269,233.1,-1.4313085064338231,-1.428697696461397,-1.2793731789981617,-1.6274537367876838,-1.659731491268382
270,233.0,-1.4198871162683824,-1.393121294806985,-1.3798905675551472,-1.6096956514246323,-1.7373731732536764
271,232.9,-1.4360852205882353,-1.3513651999080882,-1.2557425781249998,-1.6220128762637864,-1.816488505284926
272,232.8,-1.4337795806525735,-1.3158349752987133,-1.2728039924172796,-1.630740337775735,-1.740163872931985
273,232.7,-1.4657027757352938,-1.3027909639246322,-1.2595210650275737,-1.6254580853630516,-1.7211790843290442
274,232.6,-1.4761042555147057,-1.294778242761948,-1.230971605009191,-1.6694969324448528,-1.7541936638327202
275,232.5,-1.493364030330882,-1.3179611270680147,-1.3169372012867642,-1.6816635799632356,-1.7222833180147057
276,232.4,-1.5506781755514705,-1.4404688275505513,-1.3042846909466912,-1.6892466538373163,-1.7634089958639705
277,232.3,-1.564437328814338,-1.4538561552159925,-1.2786504078584555,-1.8054622300091911,-1.9997872817095586
278,232.2,-1.585475590533088,-1.4708934771369486,-1.2959527458639704,-1.8018744743795956,-1.9829868681066178
279,232.1,-1.562463360523897,-1.4092009449678309,-1.2565175494025733,-1.8506514878216913,-2.1933293313419115
280,232.0,-1.564226119025735,-1.4288241814108453,-1.2686761661305148,-1.8855272030101102,-2.0197076573988966
281,231.9,-1.5803230353860294,-1.5061787626378678,-1.2812162454044118,-1.8183375947840072,-2.131737184053309
282,231.8,-1.5997639728860293,-1.518160701976103,-1.3758310029871321,-1.912530735868566,-2.259591383272059
283,231.7,-1.6217996587775734,-1.4977685173483457,-1.3396402458639705,-1.8855834185431986,-2.215209219898897
284,231.6,-1.6194426217830882,-1.5549597914751836,-1.2714146656709557,-1.8495753619025737,-2.0647322840073525
285,231.5,-1.629339767922794,-1.514825916245404,-1.114613482306985,-1.8294401625689336,-2.0551194278492644
286,231.4,-1.6299517141544113,-1.4416513614430144,-1.0144173253676472,-1.8909098403033087,-2.0246265165441173
287,231.3,-1.6523913488051467,-1.3921877154181987,-0.9064875172334559,-1.9624762293198528,-2.1126038258272057
288,231.2,-1.6298866647518382,-1.3997165814568013,-0.825537149586397,-1.9182004739200365,-2.044823954503676
289,231.1,-1.6634971289062497,-1.4500515682444852,-0.9187103802849264,-1.9366512149586395,-2.0734858455882352
290,231.0,-1.6798004365808823,-1.4952448414522057,-0.8880046530330882,-2.0328942153033087,-2.1357284869025737
291,230.9,-1.6771896266084554,-1.447232760799632,-0.836724040670956,-1.9882430204503676,-2.057572834329044
292,230.8,-1.7115445450367646,-1.463332487936581,-0.8729348747702207,-1.9896122702205883,-2.152597162224265
293,230.7,-1.7646666176470582,-1.5340476131663598,-0.9823865176930148,-1.9787164952895222,-2.1515611902573526
294,230.6,-1.81418206227022,-1.5842280072380515,-1.1378184512867644,-1.9883715130974264,-2.2151289119944853
295,230.5,-1.8541593370863967,-1.5169139217601102,-1.0084504480698528,-1.957657755055147,-2.2906866038602938
296,230.4,-1.8520954239430145,-1.5646529555376838,-0.961883909696691,-1.949719318704044,-2.3062783835018386
297,230.3,-1.8787889682904406,-1.633729799517463,-1.0400475930606616,-1.9019742618336397,-2.362943640854779
298,230.2,-1.8975505009191176,-1.680189929917279,-0.9131450425091912,-1.866937930836397,-2.3715245404411767
299,230.1,-1.9248198529411764,-1.7195729262408088,-0.8621455078125001,-1.922095407284007,-2.369223718979779
300,230.0,-1.9588487212775736,-1.7656957634420953,-1.024375505514706,-1.9207984346277573,-2.4708493566176473
301,229.9,-1.9803527688419116,-1.77036767578125,-1.048616446461397,-1.9537467601102938,-2.498551568244485
302,229.8,-1.955576174172794,-1.7474759076286766,-1.0893727079503674,-1.9953482622931982,-2.5430421472886033
303,229.7,-1.9720497346047794,-1.835298624195772,-1.0808399931066177,-2.055757875689338,-2.6984178653492648
304,229.6,-1.9691096622242645,-1.93078271484375,-1.1530367991727941,-2.150306379250919,-2.789659690946691
305,229.5,-1.9742630204503673,-1.9532428280101102,-1.101157892922794,-2.1163020048253673,-2.649574597886029
306,229.4,-2.02763244140625,-1.9602617388556982,-1.1492221737132353,-2.206124388212316,-2.7529268554687505
307,229.3,-2.0523488051470586,-2.037652458639706,-1.3719561465992645,-2.169369468060662,-2.776950965073529
308,229.2,-2.0640528791360286,-2.0507506778492646,-1.3761602653952203,-2.211894511144301,-2.7680408030790433
309,229.1,-2.0807448770680144,-2.047628708065257,-1.3397044921874999,-2.3247592400045956,-2.970119582950367
310,229.0,-2.043020238970588,-2.005015326286765,-1.2404037683823528,-2.332272044462316,-2.835290642233455
311,228.9,-2.0575993359374998,-1.9450132755055147,-1.168941779641544,-2.261245726102941,-2.805307686121324
312,228.8,-2.066364943704044,-1.9516687930836394,-1.2392192267922792,-2.299614835133272,-2.8074800149356616
313,228.7,-2.1346138131893384,-2.0030136517693014,-1.3257550091911765,-2.2568488683363968,-2.8412053193933815
314,228.6,-2.189106741727941,-2.0822675149356615,-1.6750341624540441,-2.2140929400275735,-2.736098334099265
315,228.5,-2.183922866498161,-2.0696290584788604,-1.6253075080422792,-2.2040644904641544,-2.6058991440716905
316,228.4,-2.227004844898897,-2.113730144186581,-1.6381728343290443,-2.186780221737132,-2.631722150735294
317,228.3,-2.206535966222426,-2.064384952320772,-1.6202440946691175,-2.156142756204044,-2.6212018152573524
318,228.2,-2.25734677734375,-2.1236120318244485,-1.7397502872242647,-2.2908833582261026,-2.923087258731617
319,228.1,-2.2740460029871317,-2.1454638126148895,-1.9040602596507352,-2.3201937356387865,-3.106024649586397
320,228.0,-2.2848281422334553,-2.1648300637637865,-1.8810600758272058,-2.288867629825367,-3.174515245863971
321,227.9,-2.2975689912683817,-2.1606440142463237,-1.9178089728860293,-2.3055997817095584,-3.2145246438419117
322,227.8,-2.2943414165900737,-2.1416933565027567,-1.9951294232536765,-2.2723924632352936,-3.2109910960477945
323,227.7,-2.2987206066176467,-2.069482496553309,-1.9611832720588238,-2.2881729664522057,-3.328320944393382
324,227.6,-2.3087647162224263,-2.113103742532169,-2.0545211339613974,-2.2577864631204045,-3.376445456112132
325,227.5,-2.350142560891544,-2.1347346765854778,-2.0256584731158083,-2.3459324190027573,-3.429023041130514
326,227.4,-2.352416880744485,-2.1153242560891545,-1.8964711626838233,-2.2747635541130506,-3.3403309914981616
327,227.3,-2.3457384754136026,-2.1653641113281243,-1.8612922851562501,-2.3353679141773895,-3.3890216739430152
328,227.2,-2.362143774126838,-2.147009739774816,-1.927662752757353,-2.3225889188878672,-3.4554965418198527
329,227.1,-2.3934172782628673,-2.1938332634420954,-2.1507259880514704,-2.295035276884191,-3.3098019416360294
330,227.0,-2.4088572759650733,-2.2163716768152573,-2.131423983226103,-2.3380522058823527,-3.251964188878676
331,226.9,-2.4195269841452203,-2.2319233025045957,-2.0511160788143377,-2.385592477596507,-3.26284189453125
332,226.8,-2.454113992417279,-2.2925919088924633,-2.1894584903492644,-2.3997326918658084,-3.3099545266544106
333,226.7,-2.4483390510110286,-2.2130649988511024,-2.209507358685662,-2.3531099379595584,-3.2534498851102938
334,226.6,-2.412411703814338,-2.152458631089154,-2.0722049345128677,-2.445325496897978,-3.315612218520221
335,226.5,-2.408533635110294,-2.217791119025735,-2.137045536534926,-2.4849895708869485,-3.3198123219209554
336,226.4,-2.4543886454503676,-2.32622485926011,-2.1388685259650733,-2.5276109834558818,-3.37465860523897
337,226.3,-2.4350320312499996,-2.27291446461397,-2.0842390739889707,-2.4989089384191177,-3.313720967371323
338,226.2,-2.4837797323069846,-2.2750446317784925,-2.2200116325827204,-2.4410812241498157,-3.1843730411305144
339,226.1,-2.4789789257812496,-2.258324526079963,-2.2001193646599266,-2.453962612017463,-3.189536839384191
340,226.0,-2.474908921185661,-2.326851260914522,-2.2617034811580883,-2.507303122127757,-3.2468284983915434
341,225.9,-2.470421315487132,-2.352694344554228,-2.117522684972426,-2.4736099408318015,-3.273522845818014
342,225.8,-2.4783300379136026,-2.396919907513787,-2.189004750689338,-2.4677012867647057,-3.2155686465992637
343,225.7,-2.487177559742647,-2.3632046415441175,-2.2361013212316174,-2.4145374540441176,-3.021424287683824
344,225.6,-2.5211646679687503,-2.3738273696001837,-2.2497376034007353,-2.399487752757353,-3.099539786305147
345,225.5,-2.5364448529411763,-2.4110039062499995,-2.263803532858456,-2.3978554946001838,-3.065075649126838
346,225.4,-2.521773401884191,-2.417751777918198,-2.2461920094209558,-2.575550786994485,-3.2349148207720586
347,225.3,-2.5440451930147057,-2.434863384650735,-2.162836420036764,-2.607433025045956,-3.5363505399816173
348,225.2,-2.5489030181525734,-2.397698894186581,-2.090145720358456,-2.692264272173713,-3.5967942842371317
349,225.1,-2.554820104549632,-2.3722774270450366,-2.0530916532628676,-2.6252653952205884,-3.565470186121323
350,225.0,-2.5774653274356614,-2.453143471392463,-2.165699396829044,-2.5966918428308823,-3.5572707490808817
351,224.9,-2.5760093451286763,-2.4741178883272057,-2.0714339786305147,-2.559999161305147,-3.539859995404411
352,224.8,-2.6148880078124996,-2.5128905445772056,-2.1058619772518385,-2.4943534725413605,-3.4804441923253675
353,224.7,-2.6331853607536764,-2.5886490062040437,-2.133965728400735,-2.4778080365349267,-3.327092233455882
354,224.6,-2.63963007008272,-2.7032985782398895,-2.2313350471047793,-2.490075068933823,-3.348052596507353
355,224.5,-2.6520745829503674,-2.6576756577435656,-2.0780915039062497,-2.466886161534926,-3.253811270680146
356,224.4,-2.676658438648897,-2.749230684168198,-2.1094156020220587,-2.4817391084558817,-3.208469427849264
357,224.3,-2.7029608835018375,-2.7829840963924632,-2.1769143956801464,-2.4513706744025736,-3.0650957261029412
358,224.2,-2.7331807479319847,-2.885477059397978,-2.3185253389246325,-2.4040110954733453,-2.901392078354779
359,224.1,-2.73587909352022,-2.950245384306066,-2.420986178768382,-2.3854760311351106,-2.9692843807444853
360,224.0,-2.7298126344209557,-2.91873657801011,-2.2988699793198526,-2.3949804716222425,-2.989417572380514
361,223.9,-2.708474021139706,-2.876633151424632,-2.150244140625,-2.3440311293658085,-3.0042062729779406
362,223.8,-2.6743648448988964,-2.783690805951287,-2.102207967601103,-2.319643626493566,-2.9281667336856616
363,223.7,-2.6743969680606616,-2.741830310776654,-1.984874103860294,-2.391111638327206,-3.1163562614889706
364,223.6,-2.660959849494485,-2.778647469554228,-2.1049585133272055,-2.403900672104779,-3.300020438878676
365,223.5,-2.7211385776654406,-2.8258183249080875,-2.2874100413602942,-2.298197400620404,-3.2403958352481617
366,223.4,-2.729815043658088,-2.9161125172334557,-2.2445376665900736,-2.31106875,-3.268427309283088
367,223.3,-2.7762418462775735,-2.941411514820772,-2.2914776367187497,-2.3156382697610294,-3.204727079503676
368,223.2,-2.863562236902573,-2.9375607508042276,-2.3784069278492646,-2.253218951056985,-3.103017118566176
369,223.1,-2.854122845818014,-2.9249845329733457,-2.3897383731617645,-2.152390369370404,-3.0566352883731613
370,223.0,-2.8838327550551464,-2.960350126378677,-2.556525844439338,-2.2529720042509194,-3.135851005284927
371,222.9,-2.9270287706801468,-2.960506726792279,-2.4092050091911767,-2.250592882582721,-3.2352521139705885
372,222.8,-2.9548996289062495,-2.981376743451287,-2.383855819163603,-2.3209526453354776,-3.2430620576746323
373,222.7,-2.9606384317555143,-2.9819107910156246,-2.245995255055147,-2.3712213781020215,-3.2691540958180143
374,222.6,-2.996685437729779,-2.962669017118566,-2.094907979090073,-2.368011069623162,-3.177205560661765
375,222.5,-3.014323462775735,-2.9065197380514705,-2.1804961282169115,-2.393565044806985,-3.281075804227941
376,222.4,-2.998379934512867,-2.922916604434743,-2.172055767463235,-2.4672073931525733,-3.521116130514706
377,222.3,-3.0283026596966907,-2.99368794519761,-2.2691038545496323,-2.4788520392922795,-3.58913692555147
378,222.2,-3.0521019071691167,-3.067962718290441,-2.4771655732996325,-2.5114028406479774,-3.5040627470128674
379,222.1,-3.0322570209099253,-2.986648957375919,-2.1937951171875,-2.4909705020680146,-3.5294922449448527
380,222.0,-2.9986923322610286,-3.1017201459099266,-2.2158436523437497,-2.469612614889706,-3.536045369944853
381,221.9,-2.993604826516544,-3.06167661707261,-2.1507982651654407,-2.4902316693474265,-3.4210042968749996
382,221.8,-3.0088039005055136,-3.112001565372242,-2.216975993795956,-2.5265991038602937,-3.420940050551471
383,221.7,-3.0337330801930147,-3.1710118135340073,-2.2808689625459557,-2.5372740320542277,-3.3822999023437497
384,221.6,-3.0279862465533083,-3.047265363625919,-2.3469824448529413,-2.6387972771139703,-3.5435862821691178
385,221.5,-3.048292903262867,-3.090081522863051,-2.201175413602941,-2.714210414751838,-3.4786252182904414
386,221.4,-3.0305103239889704,-3.0834500976562498,-2.098766773897059,-2.7403666992187494,-3.4706265510110295
387,221.3,-3.064376167279411,-3.0524110926011025,-2.0997906996783082,-2.7095666101792273,-3.3289593922334553
388,221.2,-3.1092201011029403,-3.1428377929687494,-2.200155503216912,-2.715396964039522,-3.4422497529871325
389,221.1,-3.1306847977941175,-3.153876114430147,-2.2278416532628675,-2.6593781853170957,-3.632049454273897
390,221.0,-3.110211100643382,-3.1118268956801467,-2.061018043428309,-2.6430094267003676,-3.488085489430147
391,220.9,-3.0897301757812503,-3.057191420611213,-1.870624063648897,-2.6363940630744485,-3.6925293370863965
392,220.8,-3.063846135110294,-3.044420456112132,-1.8812086454503676,-2.602102587890625,-3.675504061351103
393,220.7,-3.0687232341452204,-3.0644432243795947,-1.8951741900275734,-2.657751950252757,-3.6005286017922793
394,220.6,-3.0795913028492645,-3.0250381433823526,-1.9717558076746324,-2.663650565831801,-3.5831339096966914
395,220.5,-3.1060053756893375,-3.083283458754596,-1.9603279928768378,-2.728812399471507,-3.5809093807444845
396,220.4,-3.1434023575367642,-3.17000997242647,-1.8805862591911764,-2.780998483455882,-3.7242308823529413
397,220.3,-3.170394647288603,-3.1854511747472425,-2.009456353400735,-2.867990013212316,-3.774901154641544
398,220.2,-3.2001575597426473,-3.1570844152113966,-2.002859059053309,-2.880624454273897,-3.786718462775735
399,220.1,-3.1723477355238963,-3.1212088666130513,-1.9484384076286765,-2.997153231272977,-3.882208576516544
400,220.0,-3.172118857996323,-3.1294906192555145,-2.000329360064338,-3.0338639820772055,-4.0301959673713235
401,219.9,-3.1300174391084554,-3.0742086655560654,-1.8791607938878676,-3.0352472857306982,-4.080103314568015
402,219.8,-3.123351079963235,-3.1530690199908085,-1.9379662568933824,-3.1170750172334554,-4.032749758731618
403,219.7,-3.150794700137867,-3.146108332375919,-1.954895163143382,-3.0167583984374997,-3.887328205422794
404,219.6,-3.1317536960018377,-3.1410288574218748,-2.0960724437040437,-2.9462681353400733,-3.8191066406250003
405,219.5,-3.114851291360294,-3.1311770852481615,-2.0829180089613972,-2.8704052734374996,-3.806634823069853
406,219.4,-3.118244300321691,-3.182443643727022,-2.3324868681066175,-2.8829333065257354,-3.887705652573529
407,219.3,-3.1025577573529404,-3.2171306353400735,-2.370038844209559,-2.7384172248391545,-3.8380311982996322
408,219.2,-3.1257771817555144,-3.162828438074448,-2.373146760110294,-2.7575525907628675,-3.808963752297794
409,219.1,-3.119444100413603,-3.191225313074448,-2.3143091739430144,-2.7926170295266544,-3.8321125057444845
410,219.0,-3.1260140900735287,-3.1437251953125,-2.289309323299632,-2.786393166934743,-3.9045100815716913
411,218.9,-3.194981715303308,-3.2362378934972424,-2.5316022863051466,-2.7253370749080883,-3.7713957146139707
412,218.8,-3.1880736293658085,-3.16072437097886,-2.4269651022518377,-2.6854160156249995,-3.6607153607536764
413,218.7,-3.179223698299632,-3.1586765194163604,-2.392256025965074,-2.6545135340073527,-3.688734788602941
414,218.6,-3.1638479469209555,-3.141257734949449,-2.4105662281709557,-2.607886764705882,-3.7214441980698525
415,218.5,-3.1673325068933815,-3.129631158088235,-2.4117828929227936,-2.7255759909237134,-3.8091364142922792
416,218.4,-3.2102675218290435,-3.215426100068933,-2.4683718577665443,-2.663538134765625,-3.657073397288603
417,218.3,-3.1916730296415436,-3.1949395536534926,-2.631469180836397,-2.6331134851792277,-3.58694853515625
418,218.2,-3.1699770461856613,-3.064346854894301,-2.660769519761029,-2.6518854578354776,-3.716685954733456
419,218.1,-3.1771445266544114,-3.10256337890625,-2.6234504365808817,-2.6268996610753677,-3.751639970128677
420,218.0,-3.1029352045036758,-3.016320720358456,-2.379872547104779,-2.704571458524816,-3.8229413430606614
421,217.9,-3.1258839912683816,-3.0918422736672793,-2.394930279181985,-2.8347284869025735,-3.6456977826286763
422,217.8,-3.1184265992647053,-3.063320921415441,-2.3696453354779417,-2.912217583869485,-3.859822748161765
423,217.7,-3.138160660615808,-3.065997182329963,-2.6281203412224263,-3.010361873851102,-3.862207892922793
424,217.6,-3.207047977941176,-3.0473436638327205,-2.5160345990349264,-3.0895836138556985,-3.9606212143841906
425,217.5,-3.2483776378676463,-3.0679105181525737,-2.644583461626838,-3.0484920668658084,-4.014640326286765
426,217.4,-3.2581519129136027,-3.147537813074448,-2.62677919921875,-3.016105896714154,-4.032304049862132
427,217.3,-3.2803634731158082,-3.1844955106847426,-2.6751968347886024,-3.055069284237132,-3.961621047794117
428,217.2,-3.2664758272058823,-3.173266457950367,-2.860551493566176,-2.985922170840992,-3.789878578814338
429,217.1,-3.285348184742646,-3.198844525505514,-2.8192170151654414,-2.915598546645221,-3.6829606502757355
430,217.0,-3.287536575137867,-3.192309469784007,-2.86992744140625,-2.935721699793199,-3.7437657801011026
431,216.9,-3.296282105928308,-3.1770911218979774,-2.8687509306066175,-2.849127694163603,-3.6501227481617646
432,216.8,-3.302787849264706,-3.14045264820772,-2.776079624310662,-2.7952591595818013,-3.49588740234375
433,216.7,-3.3435344738051467,-3.1542415153952206,-2.8433736328125003,-2.860461147173713,-3.703788505284926
434,216.6,-3.367442940027573,-3.180323515050551,-2.8558976505055145,-2.832704727711396,-3.542349540441176
435,216.5,-3.355769383042279,-3.0717552590762867,-2.6509277860753673,-2.80146294519761,-3.519016078814338
436,216.4,-3.432224114200367,-3.1586323500689333,-2.782391825597427,-2.8385832663143384,-3.7440749655330876
437,216.3,-3.443663975183823,-3.166010638786765,-2.7948234892003674,-2.909563407628676,-3.7378671645220587
438,216.2,-3.4662891210937494,-3.1976178222656246,-2.7618209558823525,-2.968513424862132,-3.8224394186580875
439,216.1,-3.489055608915441,-3.0955846220128675,-2.5110394473805147,-2.872463163488051,-3.6741067038143385
440,216.0,-3.5114534834558815,-3.0309568359375,-2.63933935546875,-2.9937180606617644,-3.6320855928308817
441,215.9,-3.5174388315716905,-3.1153062356387866,-2.617579928768382,-3.00446928136489,-3.63322998046875
442,215.8,-3.5342882329963228,-3.128197661994485,-2.674807341452206,-2.936898210592831,-3.5296488453584556
443,215.7,-3.531317643612132,-3.08822641027114,-2.729745978860294,-2.9360951315487123,-3.4175390107996324
444,215.6,-3.501085732996324,-3.0213801183363973,-2.4951545438878675,-2.9379060747931987,-3.521585931755514
445,215.5,-3.520419860983456,-3.014323061236213,-2.531883363970588,-3.0075370433134183,-3.7183081744025737
446,215.4,-3.551715048253676,-2.9943846162683823,-2.679963108915441,-2.998616842830882,-3.741866498161764
447,215.3,-3.566359194623161,-3.0351308392693013,-2.8114753331801468,-2.998654989085478,-3.708093008961397
448,215.2,-3.613564983915441,-3.067657548253676,-2.747698810891544,-3.074891282743566,-3.725487701056985
449,215.1,-3.6064729928768378,-3.074903328929228,-2.83798095703125,-3.0639794462316177,-3.738678274356617
450,215.0,-3.6207332674632347,-3.0806192440257347,-2.774112080652573,-3.171981531479779,-3.8127783777573523
451,214.9,-3.6595782008272053,-3.0495802389705884,-2.7539025965073534,-3.300299508846508,-4.026851143152573
452,214.8,-3.7103480549172794,-3.129464519186581,-2.8207468807444847,-3.3310574362362124,-3.979148247931985
453,214.7,-3.725996853170955,-3.11765122644761,-2.902094772518382,-3.3257229836856608,-3.9368380284926463
454,214.6,-3.7671964142922794,-3.1627280531939337,-3.143817549402573,-3.4138087086397055,-3.9383799402573527
455,214.5,-3.7642081571691173,-3.144375689338235,-3.1540126378676474,-3.328764645565257,-4.074224775965074
456,214.4,-3.8301642359834553,-3.186434946576286,-3.296073305376838,-3.2890182559742644,-4.084998081341912
457,214.3,-3.8701840739889697,-3.2268960765165438,-3.233886879595588,-3.2133401022518386,-3.8894322725183823
458,214.2,-3.886111540670955,-3.2402131347656247,-3.299309713924633,-3.20461264073989,-3.71726417164522
459,214.1,-3.914452200137867,-3.235113582835478,-3.170254911534926,-3.2742114860983453,-3.8355818072150734
460,214.0,-3.942056436121323,-3.1919139533547787,-3.1550486098345587,-3.4220683766084563,-3.8803333869485295
461,213.9,-3.9226428033088228,-3.2239487764246317,-3.136882961856617,-3.3389577263327204,-3.87733790211397
462,213.8,-3.964014223345588,-3.2176566521139707,-2.9540459558823526,-3.3867670295266543,-3.9201540613511026
463,213.7,-3.951368940716911,-3.228205095358456,-2.908487281709559,-3.4480780991498152,-4.049200832950367
464,213.6,-4.023277441406249,-3.324034509995404,-2.9283675034466916,-3.504512471277574,-4.216759260110294
465,213.5,-4.086192259880514,-3.4346626637178304,-3.080237781479779,-3.473529681755514,-4.295934823069851
466,213.4,-4.128329817325367,-3.5077227797564334,-3.270647822840073,-3.5743301556755513,-4.426061735983456
467,213.3,-4.164999209558823,-3.6447300723805145,-3.398622483915441,-3.539928257123161,-4.253138740808823
468,213.2,-4.218246562499999,-3.733659030330882,-3.619967130055147,-3.580909380744485,-4.346143324908088
469,213.1,-4.234382829733455,-3.8346321662454037,-3.7703557272518378,-3.676409532973345,-4.475266389016544
470,213.0,-4.277299373851102,-3.911968678193934,-3.8678093692555144,-3.730671576286764,-4.448511810661765
471,212.9,-4.308572877987132,-3.9241393411075363,-3.962219341681985,-3.6614943474264705,-4.425359041819852
472,212.8,-4.351484603630515,-3.9955410989200373,-4.075670318244485,-3.844520076976103,-4.6587418428308816
473,212.7,-4.409048506433823,-4.10144514016544,-4.161836684283088,-3.8660606646369478,-4.704673948759191
474,212.6,-4.467648381204044,-4.110497848690257,-4.174320548023897,-3.9804994284237134,-4.898336460248162
475,212.5,-4.582238123851102,-4.185641954848346,-4.296822225413602,-4.048361615349265,-4.956322782628676
476,212.4,-4.694148794806984,-4.325823417394301,-4.343689918428308,-4.107144993681065,-4.948127360983455
477,212.3,-4.785493414522058,-4.433662879136029,-4.564468393841912,-4.136750502642463,-4.900609173943014
478,212.2,-4.835967735523897,-4.489820188993566,-4.637311678538602,-4.148883019301469,-4.868698828125
479,212.1,-4.8735662902113965,-4.517783401309742,-4.6476232134650735,-4.222766291360294,-4.990164533547794
480,212.0,-4.953140180376838,-4.621171797449448,-4.723457967601103,-4.254650537109375,-5.098905451516544
481,211.9,-4.985327588465072,-4.6728298569623155,-4.7793121151194855,-4.275651054113052,-5.1559642176011025
482,211.8,-5.061701208639706,-4.7801031479779414,-4.829468416819853,-4.2819572323069846,-5.164280101102941
483,211.7,-5.137099087775735,-4.888892250689338,-4.867759225643383,-4.21134449965533,-4.964229095818014
484,211.6,-5.232242271369484,-5.02481940199908,-4.901741515395221,-4.171776795151654,-4.956607875689338
485,211.5,-5.295632512637867,-5.183837083524815,-5.067232014016544,-4.108409843175552,-5.01956124195772
486,211.4,-5.387195891084558,-5.307903560431986,-5.121180454963234,-4.184561813534007,-5.176442733226103
487,211.3,-5.488772059053308,-5.429717400620404,-5.282131147748162,-4.177677418428309,-5.297992761948529
488,211.2,-5.6355275266544105,-5.454153088235294,-5.473227821691175,-4.2432247300091905,-5.162946989889705
489,211.1,-5.680030553423713,-5.497630783835017,-5.492363187614889,-4.302174747242646,-5.167492417279412
490,211.0,-5.736514877068014,-5.568371406824448,-5.491538826976102,-4.428041325827205,-5.216126884191176
491,210.9,-5.813506707490808,-5.740653544921874,-5.636337190946691,-4.379272343175551,-5.203434219898897
492,210.8,-5.855766172334559,-5.764187374770221,-5.879235675551471,-4.444653015854779,-5.2819552734375
493,210.7,-5.955708235064337,-5.869729227366728,-6.051289739200366,-4.471058254825367,-5.235866567095588
494,210.6,-6.035071477596507,-5.912319922162225,-6.174015074103859,-4.496445591107537,-5.181036345358455
495,210.5,-6.127555827090992,-6.069888447552849,-6.425869496208638,-4.500719979319852,-5.120440016084557
496,210.4,-6.215615853515624,-6.087060285213695,-6.47346397575827,-4.680804431870404,-5.328064056755515
497,210.3,-6.2678967008272055,-6.115309594439338,-6.60854387867647,-4.751059794347426,-5.256722529871324
498,210.2,-6.351053287224264,-6.236087061121323,-6.622184979319852,-4.910966885914521,-5.3107577033547795
499,210.1,-6.451678047449446,-6.303543090820312,-6.784361572265625,-4.948314076861213,-5.480456336167281
500,210.0,-6.510929058708639,-6.284489638959099,-6.672772936006433,-5.065987241498162,-5.694480916819852
501,209.9,-6.6076262002527555,-6.3197407936006424,-6.641926669921874,-5.198392891199449,-5.784943755744486
502,209.8,-6.673410982306983,-6.2454473489200355,-6.544817147288603,-5.254578308823529,-5.916387718290441
503,209.7,-6.807803851102939,-6.41824385914522,-6.634308260569853,-5.362463947610293,-6.121357582720588
504,209.6,-6.883980716911763,-6.379306571691176,-6.685327872242647,-5.418093232996323,-6.194791130514706
505,209.5,-7.0147975550321675,-6.541837924804688,-6.7890218399586395,-5.519381577435661,-6.313927906709558
506,209.4,-7.060962473575366,-6.574191771024815,-6.780488723575368,-5.604785018382354,-6.579016268382353
507,209.3,-7.152026015624999,-6.695362344898896,-6.772429825367647,-5.6060900218290435,-6.6329831801470585
508,209.2,-7.204101676240808,-6.775379133157168,-6.734705187270221,-5.549499049287683,-6.582682324218749
509,209.1,-7.243929578354777,-6.863304242302389,-6.8724091509650735,-5.570298796530331,-6.680376889935661
510,209.0,-7.314512195542278,-6.874085578469669,-6.781661218979779,-5.6139521656709555,-6.806432192095587
511,208.9,-7.39487792164522,-6.918279018267463,-6.7169812327665435,-5.666762643612131,-6.925263798253677
512,208.8,-7.479136171875,-6.977042319623161,-6.670960788143382,-5.790215969669118,-7.013361569393383
513,208.7,-7.5892037764246325,-7.026867351217829,-6.697490504365807,-5.872822687844669,-7.050082358685661
514,208.6,-7.650041832490808,-7.13226344496783,-6.730440837545956,-6.004818767233456,-6.904986052389705
515,208.5,-7.748859102711396,-7.278018276079963,-6.946139838005514,-6.095922061695771,-7.256963551240808
516,208.4,-7.874681511948529,-7.3215551987591905,-7.049957881433823,-6.129179572610293,-7.379533490349263
517,208.3,-8.01229151539522,-7.485409423828125,-7.26142063993566,-6.176970806525735,-7.482223207720588
518,208.2,-8.14088294117647,-7.575741762408087,-7.303795105698528,-6.2035145766314335,-7.4577333122702205
519,208.1,-8.246343281249999,-7.824937189797795,-7.63056796875,-6.26922451171875,-7.400148529411763
520,208.0,-8.303157911305146,-8.010139263556985,-7.900587235753676,-6.4324623736213224,-7.583876953124999
521,207.9,-8.369255332031248,-8.133923859719669,-7.845676706112133,-6.566490242991727,-7.650560621553308
522,207.8,-8.466149227941175,-8.329339091222426,-8.01987659696691,-6.636434412339153,-7.818556726792278
523,207.7,-8.600481062729779,-8.404087680951285,-8.225790079273896,-6.677947575827207,-8.195389522058823
524,207.6,-8.686208947610293,-8.52759923023897,-8.37708615579044,-6.845833257697609,-8.319429095818013
525,207.5,-8.824339346277572,-8.678238789636948,-8.419974592141545,-7.002385486557904,-8.604225017233455
526,207.4,-8.9569405457261,-8.858762927964154,-8.618319054457722,-7.028523701746322,-8.57109399126838
527,207.3,-9.081273243336396,-8.988078731043199,-8.576077096737132,-7.2176628705193,-9.013698960248162
528,207.2,-9.169485051700367,-9.133199129710476,-8.671571225873162,-7.260354552504594,-9.11369836282169
529,207.1,-9.274403313419116,-9.245961465992647,-8.796269324448529,-7.245897122012867,-9.36108284696691
530,207.0,-9.389915793887866,-9.360675284352022,-8.896722466681986,-7.153255931181066,-9.324811781939337
531,206.9,-9.499217261029411,-9.46939813304228,-9.004668336397058,-7.230411750344669,-9.585210161994485
532,206.8,-9.616060443474264,-9.671842313878676,-9.104948816636027,-7.390856904871323,-9.834666590073528
533,206.7,-9.724922626378675,-9.768946616498162,-9.07971607306985,-7.447104561121322,-9.850471185661764
534,206.6,-9.872796783088233,-9.938083093979778,-9.185136259191175,-7.617371372357536,-10.028863149126837
535,206.5,-9.94951653033088,-10.104344548483455,-9.306850919117647,-7.687444034352022,-9.93454954618566
536,206.4,-10.075224902343749,-10.13269926183364,-9.254582519531251,-7.724674778837316,-9.780093353630512
537,206.3,-10.144790821461397,-10.31795755112592,-9.347032979090072,-7.735325614659925,-9.770396174172795
538,206.2,-10.259692961856617,-10.348107146139705,-9.447686891084558,-7.925751717601101,-9.808132858455881
539,206.1,-10.433988419117647,-10.631260770909925,-9.698946231617645,-8.147578211167277,-9.908911247702203
540,206.0,-10.593269510569852,-10.749891607306985,-10.046028963694853,-8.132596771599262,-9.982585719209558
541,205.9,-10.70120654641544,-10.856648920036763,-10.117679676011027,-8.208419479549631,-9.933340912224265
542,205.8,-10.799304257812498,-10.94659778837316,-10.181492336856616,-8.26178608972886,-10.216269674862131
543,205.7,-10.869174543887866,-11.039259056181065,-10.358743928079043,-8.334366366038603,-10.209768749999999
544,205.6,-11.027424481847424,-11.279729029756433,-10.659191860064338,-8.54576487821691,-10.264956341911764
545,205.5,-11.13475278377757,-11.380547572954962,-10.623478934972425,-8.525850525620404,-10.090411127068014
546,205.4,-11.319036938189335,-11.515167713120404,-10.649426418887868,-8.562593399586397,-10.479506939338235
547,205.3,-11.39171639476103,-11.595156393612132,-10.646659811580882,-8.645543434053309,-10.536830721507352
548,205.2,-11.475285603170954,-11.682412939453124,-10.700670892693015,-8.686281626263787,-10.57606514820772
549,205.1,-11.554284488740809,-11.715299026309742,-10.67914837431066,-8.947770186121321,-10.935977068014704
550,205.0,-11.62804087431066,-11.771277651079963,-10.64727416704963,-9.067975057444853,-11.031471197150733
551,204.9,-11.753026475183821,-11.689309380744485,-10.519676953124998,-9.230939872472424,-11.047773701746323
552,204.8,-11.866234118795955,-11.732810164866727,-10.357804325597426,-9.297372578699449,-11.038534277343748
553,204.7,-12.008097228860292,-11.903422300091911,-10.534477699908086,-9.31861803481158,-10.943497903262864
554,204.6,-12.145898365119482,-12.00150033605239,-10.705858783318014,-9.374498282398896,-11.281847150735294
555,204.5,-12.270137102481616,-12.210106140854778,-10.772205158547793,-9.602414122817096,-11.371394479549632
556,204.4,-12.403527728630513,-12.276217615464153,-10.942734978170956,-9.736448015280331,-11.717120008042277
557,204.3,-12.55329474264706,-12.319164275045956,-10.988594806985292,-9.724259283088234,-11.379340946691178
558,204.2,-12.6856959754136,-12.44656674230239,-11.036165194163603,-10.075672618910843,-11.863770272288601
559,204.1,-12.766895297564336,-12.509909601907168,-11.245487747012865,-10.38622328527114,-11.704278774126834
560,204.0,-12.917864520909925,-12.488985377412682,-11.234678303079043,-10.621561583754595,-11.919054233685664
561,203.9,-13.021951595818013,-12.717320826631433,-11.327193008961395,-10.572027668313417,-11.986665458409925
562,203.8,-13.133341871553307,-12.742304615693932,-11.437311207490806,-10.583110159122242,-11.98437668313419
563,203.7,-13.232294059053308,-12.895564220473345,-11.40332490234375,-10.75272045323989,-12.23489719094669
564,203.6,-13.350477580422792,-13.01601202320772,-11.426586086856616,-10.642501869829964,-12.192060954733456
565,203.5,-13.465357234604777,-13.08660066348805,-11.650962356387868,-10.70180323414522,-12.341060225183822
566,203.4,-13.585602259880512,-13.228825962201288,-11.925494927619484,-10.672836173023896,-12.410775517003676
567,203.3,-13.62839994829963,-13.359551169002756,-12.037693100873161,-10.837467377068013,-12.545532180606616
568,203.2,-13.664861343060661,-13.379190467026655,-12.008549362362132,-10.993949336511948,-13.142665619255515
569,203.1,-13.834088568474263,-13.482231531479778,-12.234467543658086,-10.649755681295956,-13.537913017003676
570,203.0,-13.918934672564337,-13.67631766716452,-12.371235920266543,-10.182835486557904,-13.599288332950367
571,202.9,-14.042499626608453,-13.732661692899816,-12.591175178079045,-10.356788430606617,-13.504095358455883
572,202.8,-14.063072102481614,-13.708583375459558,-12.605939786305145,-10.262207803883271,-13.122797443704043
573,202.7,-14.137727936580879,-13.707944927619481,-12.671920760569853,-10.136152501723346,-12.657348891314337
574,202.6,-14.252577876838231,-13.827487258731619,-12.720113534007352,-10.446050666360293,-12.897409294577205
575,202.5,-14.38239319508272,-13.936057522403491,-12.7413429285386,-10.881833478860292,-13.247816773897057
576,202.4,-14.545136360294114,-13.939548908547792,-12.743025379136027,-10.317812996897977,-13.143420513556983
577,202.3,-14.62281498391544,-14.01653608111213,-12.98658319163603,-10.60718245346967,-12.468954578354777
578,202.2,-14.596421791130512,-14.165095665785845,-13.09377416704963,-10.634653779871321,-12.770241727941176
579,202.1,-14.687243606387865,-14.022251996208638,-13.094464815027573,-10.420075074678309,-12.060327883731617
580,202.0,-14.853823080193012,-14.042019786879596,-13.195917790670954,-10.920951459099262,-11.391515625
581,201.9,-14.849345914522058,-14.075839453125,-13.12715414751838,-11.374120932904413,-11.316813212316175
582,201.8,-15.004332139246323,-14.282250844439336,-13.313187408088233,-11.732270094209557,-11.270909214154411
583,201.7,-15.061644678308824,-14.262065452665441,-13.270407387408087,-11.682210161994483,-11.362404009650735
584,201.6,-15.085357193244484,-14.374068879250919,-13.43193469094669,-11.574697954963234,-9.896543830422793
585,201.5,-15.136373592601101,-14.34302184340533,-13.546437701056984,-10.62180451516544,-8.488706112132354
586,201.4,-15.17628903033088,-14.266956204044117,-13.402738752297795,-10.418264131433824,-7.945623908547795
587,201.3,-15.215047231158087,-14.301231617647058,-13.553926413143383,-10.125322980813419,-10.420476614200366
588,201.2,-15.176974859834559,-14.264012919347426,-13.235593910845589,-9.413525916245403,-10.76747100758272
589,201.1,-15.212470150505512,-14.324261916934741,-13.325896133961399,-8.71578875804228,-13.776363246783086
590,201.0,-15.252571902573527,-14.505848127297792,-13.364825390624999,-9.020139654181985,-12.60508049172794
591,200.9,-15.269992293198527,-14.589553056066176,-13.415106169577205,-8.659456778492647,-12.203942509191176
592,200.8,-15.305738947610292,-14.593130773207717,-13.414953584558823,-7.443131327550551,-10.167570961626838
593,200.7,-15.350268877527572,-14.550445114315254,-13.437757014016542,-5.8471382123161755,-7.832751148897058
594,200.6,-15.370565094209557,-14.585144152113969,-13.406609593290439,-6.027991613051471,-8.971517233455883
595,200.5,-15.323353683363967,-14.5661151941636,-13.611884627757352,-6.350106617647058,-8.212968922334559
596,200.4,-15.28449590073529,-14.530988516773895,-13.71276741727941,-7.208658346737132,-11.339877642463234
597,200.3,-15.23138025275735,-14.507799609375,-13.689478124999999,-7.057077177159926,-7.351947725183822
598,200.2,-15.228065142463231,-14.418300465303309,-13.609298713235294,-4.94098397288603,-4.1031316061580885
599,200.1,-15.260924727711396,-14.348025025850182,-13.647111690027572,-4.875272030101102,-2.730308134191176
600,200.0,-15.3544906640625,-14.52759149241728,-13.737373759191177,-5.964668830422793,-3.6243358800551473
601,199.9,-15.36389793198529,-14.525310747931986,-13.787943646599265,-6.178207548253675,-4.03651619944853
602,199.8,-15.418471168428306,-14.588121567670036,-13.896821088005513,-5.503560920266544,-4.813776252297794
603,199.7,-15.414464607077205,-14.591315814568015,-13.382533283547794,-3.710466107536764,-3.6294755859375005
604,199.6,-15.44921464039522,-14.6716859576057,-13.359810161994485,-6.01735081571691,-6.779031135110294
605,199.5,-15.417407088694848,-14.685063246783088,-13.413869427849265,-4.751959242876838,-4.551611098345588
606,199.4,-15.340421522288601,-14.735068971162683,-13.587804302619483,-4.573695772058823,-2.867192957261029
607,199.3,-15.172845427389703,-14.680746696920954,-13.58641096047794,-3.6849482709099264,-3.033028779871323
608,199.2,-15.164570500919114,-14.819109185431984,-13.714044312959558,-4.959916561351102,-5.688650562959559
609,199.1,-15.133985235523898,-14.625878328929229,-13.507512459788602,-3.6124503102022056,-5.321000976562499
610,199.0,-15.096115240119484,-14.780117690142461,-13.714401683134192,-3.5390488855698528,-5.260609432444852
611,198.9,-14.885574416360292,-14.674739665670957,-13.38599455422794,-2.4605478601792274,-6.993320731847427
612,198.8,-14.912420545726102,-14.714751071346505,-13.998057232306985,-0.9862613740808821,-4.7982366727941175
613,198.7,-14.758796343060661,-14.36062533605239,-13.584857002527572,1.0597149988511032,-3.186095645680147
614,198.6,-14.77714188074448,-14.42337391716452,-14.034316251148896,2.8784581485523892,-0.3351650390624997
615,198.5,-14.729691955422794,-14.340727045036763,-13.754101895680147,3.8333793629365807,2.4142965303308817
616,198.4,-14.787258267463233,-14.290317773437497,-13.38919080882353,3.1745180967945767,2.906704446231617
617,198.3,-14.777740977711396,-14.356027708524817,-13.49848585133272,1.341336750344669,-1.3250402688419118
618,198.2,-14.678616931295956,-14.26180645967371,-13.19745167164522,2.3087016745174633,1.938070657169118
619,198.1,-14.629896534926468,-14.115571788832717,-13.00556798023897,0.1376477481617646,1.4689359719669115
620,198.0,-14.372100934053305,-13.840017299517463,-12.749630704273898,0.458497903262868,4.272388545496323
621,197.9,-14.24926356962316,-13.809745234949448,-12.839904819623161,-0.5964668830422796,-1.6540617532169113
622,197.8,-14.100527709099262,-13.716031933593749,-13.24788102022059,2.740085621553309,1.4413261144301472
623,197.7,-14.009889798943014,-13.708697814223344,-13.6101780847886,1.2499905244715075,0.35953848805147126
624,197.6,-13.893423983340991,-13.649241656422335,-13.693681842256433,-0.11126660156250004,1.014088062959559
625,197.5,-13.880823512522975,-13.220276583467372,-13.354339989085478,1.898386506204044,2.9249785098805146
626,197.4,-13.823760490119485,-13.285676730813417,-12.938725302159925,2.3455168255974264,7.699544427849264
627,197.3,-13.614414647977936,-13.182844466911764,-13.118980409007353,3.5789157370174633,7.187477136948528
628,197.2,-13.585704732766544,-12.655442783203123,-13.160379936810662,2.0388590849034927,5.535270496323529
629,197.1,-13.548487319393379,-12.551537605698527,-12.478712791819852,0.7319985179227941,5.266504032628676
630,197.0,-13.398077520909924,-12.35020287856158,-12.551907825137867,2.321904294002757,6.849914906939337
631,196.9,-13.36724121300551,-12.138636522863052,-12.468598011259191,5.171710589958639,9.58655929463465
632,196.8,-13.08803440050551,-11.890082755629596,-12.963815097656248,3.426144002757352,10.679582036994484
633,196.7,-13.001158433823527,-11.764805235523896,-13.161097086397058,1.2337281738281252,6.376339194623162
634,196.6,-13.227288547679226,-11.381533553251376,-13.161373747127755,2.0675731761259186,9.075993801700365
635,196.5,-13.294306216681985,-11.507357769416357,-13.667277004825369,0.9571477510340071,8.83996083984375
636,196.4,-13.574498085937499,-11.408773793658087,-13.390965613511028,1.9179796271829046,8.888510983455882
637,196.3,-13.218600758272057,-11.309983025045955,-12.372155445772059,2.1680323414522054,12.614986471737131
638,196.2,-13.036818998161761,-11.48217120289522,-12.950589188878675,3.3064531020220587,15.40177113970588
639,196.1,-12.150607620634188,-10.911107717715991,-13.096239619715073,3.9410923397288604,17.555107134650733
640,196.0,-12.060988817784924,-10.563165691061581,-13.367182427619486,1.9619020278033081,18.79803257123162
641,195.9,-11.624643849954042,-10.873836819278491,-13.747199431295956,0.6633633674172792,18.709091567095587
642,195.8,-11.50547414751838,-10.710127148437499,-14.14383615579044,-0.350162540211397,20.240041302849264
643,195.7,-10.89481846392463,-10.581226938763786,-15.080415044806983,-0.3118355928308826,20.267747529871322
644,195.6,-10.08468437040441,-9.9720814453125,-14.856697300091913,-0.7920969381893384,14.793278147977942
645,195.5,-9.59269646484375,-10.28950446059283,-15.243994215303305,0.33622911879595635,16.759898265165443
646,195.4,-8.73312723460478,-9.05990612074908,-14.796470387178308,1.1891191406249992,21.191288430606612
647,195.3,-8.535877369025734,-9.957132128906249,-13.928755526194852,1.9122115119485297,22.018580307904408
648,195.2,-8.971562205882353,-9.081169646139706,-14.125542015165442,0.8416669921875002,20.383551528033088
649,195.1,-8.548083367417279,-8.724363634535845,-14.17927201861213,2.496371208639706,24.38328670726103
650,195.0,-8.321159650850182,-8.91805204532399,-13.637205308478858,1.5175583926930143,25.985590016084554
651,194.9,-8.140146517693013,-8.968186463120404,-11.493229601332718,0.2590732996323535,24.28113505284926
652,194.8,-7.273786451056984,-6.8186088781020215,-11.39678783892463,3.015983427159926,27.986862994025728
653,194.7,-6.551388743106617,-5.9785580824908084,-10.503181709558822,2.365228400735294,28.131176298253674
654,194.6,-5.408754226792278,-5.0383191607306985,-11.145416067325367,0.7243973747702203,24.158263959099262
655,194.5,-5.540823787913602,-6.293419275620404,-12.63032528147978,2.281969180836397,22.162130687040438
656,194.4,-5.226727527573528,-5.148017750459559,-12.297669864430146,1.7498891601562498,17.157101160386027
657,194.3,-4.8975534581801465,-4.1606722196691175,-9.414375172334559,0.9122576401654411,11.753812689568013
658,194.2,-4.844453871783087,-2.216357622931985,-6.730645622702205,0.9982874827665441,12.039198874080883
659,194.1,-3.882879147518381,-1.0972268210018383,-2.8257139246323515,-0.5151149758731617,9.280080279181986
660,194.0,-3.477846231617647,0.5212585305606618,2.7969636948529404,-0.06300155101102933,13.073122989430145
661,193.9,-3.1266517348345584,-0.6268835018382354,3.9597819967830876,1.972723517922794,9.577547181755515
662,193.8,-2.6751606962316172,-0.8527896369485295,1.1280048253676471,2.4271457950367643,10.011400195312499
663,193.7,-2.1507259880514704,-0.6491287913602938,0.15583748851103035,2.7346648380055143,5.424959558823528
664,193.6,-2.0253171645220585,-1.900727481617647,-2.4320847311580884,4.859089987362132,4.2297370174632345
665,193.5,-1.8534421874999998,-0.614997931985294,3.8364009478400733,4.255074161305147,4.5820477941176465
666,193.4,-1.2531245404411762,0.6756303998161763,3.396650924862132,6.039535874310661,8.495291360294116
667,193.3,-1.3522646484374996,-1.0460907628676468,2.5158137522977944,5.853920214843749,2.531104377297794
668,193.2,-1.6554109260110292,-1.4189804400275734,5.64442901539522,8.720601209214154,3.159875114889704
669,193.1,-1.3883550206801467,-0.7270676125919114,10.359844146369484,10.524077826286762,8.68815079273897
670,193.0,-1.5353987936580882,0.13481689453124962,14.414064223345587,7.978651738855698,6.033974551930147
671,192.9,-1.6195614774816178,-3.0485884363511033,12.275344267003675,7.515729673138787,6.7467875114889715
672,192.8,-1.3997025275735295,-1.9223905388327207,14.589577148437499,5.864275919117646,6.702618164062501
673,192.7,-1.4501037683823526,-1.7995395220588233,13.855843979779412,6.117466664751838,4.839916475183823
674,192.6,-0.5503179457720588,-1.044825913373162,11.827426930147059,4.751818704044117,5.2800439453124985
675,192.5,0.1992439108455882,-3.760236931295956,9.019854561121324,3.804952372472427,0.01489711626838187
676,192.4,-0.008649964384191154,-4.365150198184742,9.692774569163602,4.985492621208639,-1.952365464154413
677,192.3,-0.8486007766544116,-4.421825494025735,7.640349471507352,5.673596846277573,-2.4153003791360286
678,192.2,-0.6787127344370404,-4.2666669004308355,4.845762304377296,2.7239734466911765,-4.132684914981618
679,192.1,-1.6701265464154411,-5.209642020909926,5.549982904411765,2.9796139849494487,-6.876444623161763
680,192.0,-2.408249345128676,-6.583662080652573,0.6843438074448532,4.82794658203125,-0.6302564338235294
681,191.9,-2.4080244829963235,-4.698956025965073,5.637133042279411,1.8577185834099266,-2.6408451286764705
682,191.8,-1.9740726907169113,-3.4703374425551465,5.5450198759191185,1.4290881936465991,-1.5203571231617645
683,191.7,-1.9086699333639703,-4.47278286707261,3.424128274356618,-0.6732426450482537,-0.9635330325137865
684,191.6,-1.3106755939797792,-5.875045209099264,7.0033311121323525,-2.44732114832261,-4.281595846737132
685,191.5,-1.4725144921875,-5.266230985753677,4.961582950367646,-2.397835417624081,-3.151278153722426
686,191.4,-1.0446713206571692,-5.623079159007352,0.7079141773897055,-1.6803384995404411,0.028577567784926407
687,191.3,-1.4932774584099262,-7.314885627297793,-2.9072666015624997,-3.489172055376838,5.824703396139705
688,191.2,-1.806642434972426,-9.680294720818015,-3.428705824908088,-3.935689625459559,6.584686006433824
689,191.1,-1.0496588430606615,-9.171423684512867,-4.28308555836397,-5.075035934627757,7.5574195140165425
690,191.0,0.5272936695772058,-8.902211511948527,-0.8157315544577199,-6.3386466796875,8.776240533088233
691,190.9,-0.24113251378676467,-11.863866641773896,-6.02027803883272,-6.174137945197609,10.169498351332718
692,190.8,-0.5951522426470588,-12.001755313648896,-3.607346742876838,-8.827505083869484,8.226259880514705
693,190.7,0.013753531709558845,-8.743131591796875,-0.6022610983455883,-10.428623851102941,8.174662051930147
694,190.6,-0.14722607192095594,-8.420346016199447,-2.718494439912684,-12.443248018152572,5.887814165900737
695,190.5,-0.030662360983455893,-7.801202188648897,-6.940092652803308,-11.389206772748162,4.060447954963235
696,190.4,0.3269896943933823,-10.739535903033088,-6.261021059283087,-12.789234547334559,-2.2040504365808813
697,190.3,0.5172696369485292,-8.994870772058823,-8.706950873161764,-13.153631663602942,-2.5575256778492648
698,190.2,0.025513821231617707,-8.737178768382353,-7.785080376838234,-11.92028294462316,-3.249137350643382
699,190.1,0.29197544806985304,-8.830637092141544,-7.47548537454044,-10.457594927619486,-7.420514613970589
