,wavelength,50uM,20uM,10uM,2uM_10mm,1uM_10mm
0,260.0,0.034850859467706385,-0.002812273266655383,0.1452586540091541,-0.6434635277165621,-0.04345989150703515
1,259.9,0.03919803356501102,0.06043030174605864,0.2804018138667571,-0.6635167740294965,-0.019200084760128855
2,259.8,0.046168679437192765,0.13136120528903208,0.22433409052381767,-0.6747401932530938,-0.06450454314290563
3,259.7,0.05641451771486691,0.2250608577725038,0.32211588404814373,-0.6850670028818444,-0.0799443973554839
4,259.6,0.06839748770978131,0.19759577046957116,0.21807757246991022,-0.6820927869130362,-0.11434734700796759
5,259.5,0.0768287777589422,0.21289935582302089,0.24645309374470253,-0.6605623071707067,-0.14237133412442796
6,259.4,0.07435144939820308,0.2512402780132226,0.3208914392269876,-0.6982238599762671,-0.20500761145956944
7,259.3,0.06826714358365825,0.24931078996440081,0.287878826919817,-0.6794701051025598,-0.32969164265129697
8,259.2,0.05963599254110864,0.2537345906085777,0.2581485166977453,-0.6205170367858961,-0.30623364977114775
9,259.1,0.059708669265977274,0.24076140023732837,0.20780803526021357,-0.5846980759450756,-0.16937626716392612
10,259.0,0.054624458382776755,0.26771498559077817,0.2242906424817766,-0.5548709950839126,-0.23110408543820982
11,258.9,0.04755269706729957,0.29773363281912196,0.13616616375656904,-0.4735224360061028,-0.16194665197491093
12,258.8,0.06126568909984745,0.3224377945414477,0.2112641295134769,-0.4347964061705375,-0.15548869299881343
13,258.7,0.0520602339379556,0.38457441939311754,0.23312244448211572,-0.44394616884217675,-0.17317204610951017
14,258.6,0.024829371079844034,0.35198443804034585,0.1797366502797084,-0.4081252330903543,-0.13590152568231914
15,258.5,-0.0031701271401932446,0.2916114087133413,0.11943471774877094,-0.38176609594846583,-0.21526529920325477
16,258.4,-0.013949981352771642,0.2524370740803527,0.07575758603153078,-0.37708358196304453,-0.2860619087981014
17,258.3,-0.025371286658755727,0.16029562637735215,0.010727716562129161,-0.36813131039159186,-0.24454532971690118
18,258.2,-0.007003824377013085,0.1666805136463807,0.023821376504492214,-0.35132481776572305,-0.22147046957111394
19,258.1,-0.0010767214782166493,0.179393015765384,0.04423405661976612,-0.29528276826580785,-0.10391586709611811
20,258.0,0.0042634378708255516,0.2359900152568232,-0.04597197830140706,-0.31323470927275815,-0.1833941854551619
21,257.9,0.03436898118325137,0.2299072893710798,-0.003570639091371482,-0.3799037548737074,-0.1110966434988982
22,257.8,0.03773501949482964,0.24325571283268355,0.014290456009493177,-0.4077401254449907,-0.185246651974911
23,257.7,0.0056032174944906045,0.20286878284454996,-0.05554634683844717,-0.4486089337175792,-0.24678092897101211
24,257.6,-0.011368377691134081,0.16400055941685035,-0.07206450245804379,-0.38086553653161564,-0.1400804373622649
25,257.5,-0.01587433463298862,0.13887179182912357,-0.16414275300898465,-0.3383200288184438,-0.19516860484827922
26,257.4,-0.013180556026445165,0.11928659942363116,-0.09277736904560088,-0.26879131208679446,-0.15994804204102392
27,257.3,-0.045316307848787936,0.0440760637396169,-0.17460583149686373,-0.20792455500932366,-0.17682168164095613
28,257.2,-0.03757781657908122,0.04664147313103917,-0.2032341413798949,-0.18735388201390063,-0.2219246991015425
29,257.1,-0.007236863875233092,0.029647363959993216,-0.1924274283776913,-0.21461555348364125,-0.0668072893710798
30,257.0,0.015995199186302777,0.08397321579928803,-0.15115178843871832,-0.24726873198847268,-0.05461023902356334
31,256.9,0.003514551618918446,0.07307170706899477,-0.1262047126631633,-0.20312354636379049,-0.0979160874724529
32,256.8,-0.0009368977792846406,0.022790472961518895,-0.22977694524495693,-0.2122654093914223,-0.1538969147313105
33,256.7,-0.008221159518562468,-0.03470906085777252,-0.3490023224275302,-0.23398745550093233,-0.1533715884048143
34,256.6,-0.004462508899813539,-0.07511771486692663,-0.34204668587896253,-0.16079527886082393,-0.09424670283098839
35,256.5,-0.021660823868452278,-0.1541141549415155,-0.40967158840481444,-0.1350878623495508,-0.08922252924224433
36,256.4,-0.013369357518223423,-0.19607113917613153,-0.37942385150025426,-0.12461885912866594,-0.1451125105950162
37,256.3,-0.01932647906424817,-0.16589449906763865,-0.2591162230886592,-0.16864949991523995,-0.05659699949143938
38,256.2,-0.0227146363790473,-0.18974944905916252,-0.3072685031361247,-0.12518170876419735,-0.015913832853025958
39,256.1,-0.04733071707068995,-0.2791418206475674,-0.3296876928292932,-0.09317037633497197,-0.015724241396846975
40,256.0,-0.05421209696558741,-0.2777396338362434,-0.37978328530259375,-0.09477992880149175,0.043657382607221705
41,255.9,-0.06986998135277166,-0.3104125614510934,-0.43690956094253264,-0.1181253517545347,0.11210384810984922
42,255.8,-0.04572787930157654,-0.24764791490083068,-0.32147206306153586,-0.12766022207153757,-0.04920688252246153
43,255.7,-0.06027744363451434,-0.26892165621291747,-0.40912651296829977,-0.12517380912018986,-0.01702768265807746
44,255.6,-0.06689892524156638,-0.31289107475843364,-0.44917375826411265,-0.15256977453805728,-0.04309255806068838
45,255.5,-0.07390195965417866,-0.3384325987455502,-0.4831580267842007,-0.21879051534158328,-0.0180941345990846
46,255.4,-0.06543591117138498,-0.32731187489404984,-0.34895492456348526,-0.23427579250720465,-0.11475812849635542
47,255.3,-0.04714191557891169,-0.27686474826241736,-0.37492105441600276,-0.20843408204780475,-0.042346041701983535
48,255.2,-0.04790581115443296,-0.29782052890320393,-0.3790565180539075,-0.19291325648414986,0.012019308357348556
49,255.1,-0.07165688082725888,-0.3156816240040686,-0.39107977623325985,-0.20617280895066958,-0.12457738599762677
50,255.0,-0.0758666011188337,-0.2855918799796575,-0.46168284454992375,-0.17834433802339378,-0.19110423800644183
51,254.9,-0.08490616375656891,-0.3074324207492795,-0.3969966095948466,-0.12621063739616883,-0.16133837938633677
52,254.8,-0.07612175962027462,-0.29706413798948983,-0.24958925241566365,-0.07004021868113244,-0.10891634175283954
53,254.7,-0.07640930666214614,-0.30525014409221907,-0.2606132056280725,-0.030881683336158695,-0.1192372266485847
54,254.6,-0.06956189523648076,-0.26191467197830137,-0.28672152907272414,0.0386983810815393,0.0213803865061875
55,254.5,-0.05721870147482624,-0.2923381759620275,-0.28615670452619096,0.06081935921342599,0.0787713002203763
56,254.4,-0.04645227665706051,-0.2625565180539075,-0.2227857602983556,0.054501618918460726,0.03125889133751474
57,254.3,-0.05130028818443804,-0.20358172571622313,-0.19259332090184778,0.03098832853025939,0.02753420918799799
58,254.2,-0.055131615528055594,-0.16127913205628072,-0.25969289710120363,0.03141490930666216,0.06500617053737912
59,254.1,-0.030575572130869658,-0.1154315731479912,-0.18090184777080864,-0.022885268689608388,0.0692561790133923
60,254.0,0.006662559755890827,-0.03596707916596035,-0.0668546872351246,-0.020590422105441694,0.11277926767248685
61,253.9,-0.014392361417189366,-0.037155975589082894,0.0014061366333276639,-0.038964994066791034,0.04138623495507709
62,253.8,-0.03830379386336668,-0.08573483641295136,0.03175656890998471,-0.07013698932022376,-0.08132288523478544
63,253.7,-0.047406553653161564,-0.12673398881166303,-0.05457864044753347,-0.020080895066960525,0.02000979827089343
64,253.6,-0.06049626377352095,-0.09632825902695372,-0.0574738599762672,-0.04332757246991024,0.010064146465502606
65,253.5,-0.04138623495507715,-0.046955483980335694,0.07297691134090521,-0.04684686387523319,0.024978674351585003
66,253.4,-0.048818220037294476,0.019439048991354506,0.11244748262417359,-0.06772562298694687,0.09063656551957958
67,253.3,-0.055612703848109825,0.040732539413459924,0.1780263773520936,-0.03887809798270901,0.11960850991693499
68,253.2,-0.03539593490422107,0.022369816918121725,0.24577767418206473,-0.06454601627394478,0.11164171893541273
69,253.1,-0.03825876589252416,-0.007445414477029997,0.10057431768096294,-0.005213765044922821,0.15157046957111384
70,253.0,-0.033844444821156144,0.008371647736904545,0.09547904729615189,-0.018171156128157347,0.08129128665875557
71,252.9,-0.0020396880827258865,0.05457666553653161,0.15745570435667056,-0.03450761993558234,0.16543829462620788
72,252.8,0.004817992880149173,0.05522443634514323,0.2614663671808782,-0.08912970842515687,0.047492659772842775
73,252.7,0.036930045770469586,0.13869207492795393,0.43284914392269885,-0.07539025258518402,-0.044632988642142865
74,252.6,0.03850839464315987,0.09428422614002376,0.31248226818104774,-0.12127335989150702,-0.020432429225292578
75,252.5,0.02595586031530768,0.03268872690286486,0.2482897609764367,-0.11783109001525695,-0.012777674182064928
76,252.4,0.048850608577725045,0.059924724529581315,0.24116033225970507,-0.1279288099677911,0.0792018308187829
77,252.3,0.029942020681471455,0.01575386506187492,0.2566436345143245,-0.12004694015934907,-0.06574083743007308
78,252.2,0.04722960162739446,0.012139777928462426,0.36198143753178497,-0.13360865400915403,-0.13081415494151555
79,252.1,0.042001617223258195,-0.010690193253093692,0.22237102898796413,-0.10011021359552465,-0.10966680793354801
80,252.0,0.05626363451432447,-0.011922537718257306,0.3100531276487541,-0.13106891846075608,-0.11882249533819304
81,251.9,0.05037286997796236,-0.032890167825055105,0.2777001356162061,-0.17412592812341077,-0.1718567553822682
82,251.8,0.06772364807594508,-0.002863620952703807,0.19211539243939657,-0.14421195117816588,-0.1017039667740296
83,251.7,0.061268848957450404,-0.020860984912697104,0.16143317511442615,-0.22940368706560438,-0.1717382607221564
84,251.6,0.06146397016443467,-0.03857988642142736,0.09889564332937788,-0.29034944058314976,-0.16782793693846426
85,251.5,0.07454657060518732,-0.03255838277674177,0.08362168164095608,-0.3334597728428548,-0.1601968808272588
86,251.4,0.04855042210544162,-0.07178801491778267,0.02559089676216313,-0.35345179691473133,-0.1485449059162569
87,251.3,-0.013437294456687572,-0.1651657569079505,-0.027356467197830203,-0.43797996270554335,-0.28078889642312255
88,251.2,0.015293710798440404,-0.1056024410917105,0.07244763519240549,-0.37669649940667915,-0.244837616545177
89,251.1,-0.009166746906255279,-0.11604577046957108,-0.07544160027123234,-0.3245469994914393,-0.19418904899135467
90,251.0,0.0003444244787252013,-0.15509766062044414,-0.05316065434819461,-0.3167776996101034,-0.18195645024580429
91,250.9,-0.019757009662654694,-0.22964265129682998,-0.1750166129852518,-0.2909340142397017,-0.1935728767587727
92,250.8,-0.03555313781996948,-0.3311432022376674,-0.26081859637226645,-0.3171410832344465,-0.23512105441600273
93,250.7,-0.07247607391083234,-0.39553517545346667,-0.35353671808781156,-0.33332942871673166,-0.24720355992541101
94,250.6,-0.08108905577216478,-0.40859526190879825,-0.42199503305645036,-0.40541368028479413,-0.226356399389727
95,250.5,-0.0900030140701814,-0.4478031700288185,-0.5211158162400408,-0.3866855992541109,-0.2652700457704696
96,250.4,-0.10192831666384133,-0.4694955924733006,-0.4554618748940499,-0.37974971181556194,-0.22103203932869964
97,250.3,-0.06029008306492627,-0.43737761484997467,-0.2640061027292762,-0.4135483387014749,-0.21534034582132583
98,250.2,-0.08415332768265807,-0.4869538057297847,-0.16751985082217316,-0.4224334632988642,-0.10519165960332257
99,250.1,-0.08132920494999152,-0.5812400067808103,-0.23649559247330063,-0.43752178335311065,-0.14077560603492112
100,250.0,-0.07540368197999661,-0.5639180623834549,-0.23627835226309551,-0.44187053737921683,-0.10742330903542964
101,249.9,-0.08289807424987286,-0.5130502797084253,-0.14576028140362782,-0.46405866248516703,-0.1567170876419733
102,249.8,-0.08414226818104764,-0.48308692998813363,-0.22794422783522636,-0.4241279369384641,-0.07361283268350574
103,249.7,-0.10344899813527715,-0.5305262671639261,-0.20249552466519743,-0.4732795219528736,-0.04666319715205986
104,249.6,-0.12359862010510256,-0.5552877013053061,-0.2250648075945076,-0.5016708425156806,0.003926123071707049
105,249.5,-0.14164693676894388,-0.5423737582641126,-0.21883988811662994,-0.4552268604848279,0.011063451432446171
106,249.4,-0.1471695778945584,-0.6092343702322428,-0.23112778437023226,-0.49581325648415003,-0.08719232073232756
107,249.3,-0.16549833192066452,-0.6170767418206476,-0.281251025597559,-0.48550027123241235,0.06207540261061201
108,249.2,-0.1773438481098491,-0.6023360061027293,-0.1771534666892694,-0.41941579928801503,0.03747591117138497
109,249.1,-0.17440518053907442,-0.5681325224614341,-0.22382061366333283,-0.4881130784878795,-0.11271607052042734
110,249.0,-0.1976530428886252,-0.6037796660450926,-0.25680557721647734,-0.5199111205289031,-0.0008492117308016936
111,248.9,-0.2014693609086286,-0.5768359552466521,-0.23981344295643334,-0.4442404305814546,0.05722897101203606
112,248.8,-0.20716934904221052,-0.5542281615528056,-0.16902670791659605,-0.46209165112730977,0.09659684692320747
113,248.7,-0.21742229699949145,-0.5860578021698594,-0.19420287336836747,-0.49766967282590285,0.048195728089506666
114,248.6,-0.2246599508391253,-0.5261745507713171,-0.32792014748262427,-0.5020302763180201,0.01080671300220383
115,248.5,-0.24022714731310393,-0.5149752254619427,-0.33068976267163924,-0.46224371927445324,0.14135622986946958
116,248.4,-0.2318235850144092,-0.4651839667740296,-0.1882161281573148,-0.4162579165960333,0.22864334632988653
117,248.3,-0.22825776470588238,-0.43818318104763526,-0.10062922020681471,-0.31461319715205976,0.3123124258348872
118,248.2,-0.2554460484827937,-0.437677801322258,-0.1581745719613494,-0.35041240888286146,0.26678677741990164
119,248.1,-0.2420124668587896,-0.4448342863197153,-0.18270178165790818,-0.3219657908120022,0.33781247669096454
120,248.0,-0.211049259196474,-0.4274833107306324,-0.21391051025597566,-0.28291390066112915,0.3240631462959823
121,247.9,-0.2373671601966435,-0.45327031615528063,-0.29039604848279377,-0.3365505085607731,0.3862056958806577
122,247.8,-0.2599789432107137,-0.46116166553653165,-0.21392670452619084,-0.38661845228004743,0.289747092727581
123,247.7,-0.23697905068655706,-0.415896507882692,-0.09131988472622475,-0.4651033904051534,0.19304360061027284
124,247.6,-0.24348993727750465,-0.4193486523139515,-0.12018913375148337,-0.4390562892015596,0.22691727411425666
125,247.5,-0.20336053568401422,-0.3416359043905747,0.031239142227496186,-0.44690458552297,0.27175170367858964
126,247.4,-0.20783015426343449,-0.28543388709950845,0.04610232242753005,-0.46514091371418886,0.2660758094592303
127,247.3,-0.2177402576707917,-0.29309851669774545,-0.0011572978470926793,-0.47406356162061375,0.12309225292422434
128,247.2,-0.23741590100016954,-0.3181818613324293,-0.08926202746228173,-0.4295036446855401,0.023122258009832062
129,247.1,-0.21805703339549076,-0.29335723003898967,-0.07491627394473645,-0.4319466095948467,-0.026894338023393836
130,247.0,-0.21381808442108835,-0.32712425834887265,-0.23788197999660962,-0.4536923546363792,-0.13352373283607383
131,246.9,-0.2231246550262757,-0.30333448042041034,-0.31877433463298865,-0.45186556195965427,-0.2024204780471267
132,246.8,-0.2174211120528904,-0.2718603237836922,-0.3018177487709782,-0.41926965587387693,-0.3009329886421428
133,246.7,-0.24146051873198845,-0.26525424648245466,-0.4026922529242244,-0.4265946007797933,-0.4310756738430243
134,246.6,-0.2622942498728598,-0.27261473978640455,-0.4862902356331583,-0.42790001695202584,-0.46064404136294296
135,246.5,-0.2516510595016105,-0.2865556365485676,-0.522498253941346,-0.3993862519071029,-0.328901678250551
136,246.4,-0.24863734531276488,-0.2922670791659604,-0.5126987455500933,-0.4289032717409731,-0.4097584844888966
137,246.3,-0.2629941583319207,-0.32626122224105786,-0.6129333785387354,-0.40994215121207006,-0.39886487540261084
138,246.2,-0.2613320732327513,-0.2919629428716732,-0.4526890998474319,-0.4175416087472454,-0.45376740125445003
139,246.1,-0.27489244414307507,-0.31498408543820994,-0.561043776911341,-0.45995479742329204,-0.5412717579250722
140,246.0,-0.2534735073741312,-0.2471383878623496,-0.5652669265977286,-0.501418053907442,-0.604050228852348
141,245.9,-0.26263077470757756,-0.30652198677741993,-0.6265839633836244,-0.5631498220037294,-0.7201473470079675
142,245.8,-0.301906540769622,-0.33101167316494323,-0.6751762536023055,-0.6006257331751144,-0.7816263264960163
143,245.7,-0.2895243227665706,-0.33343409899983045,-0.5373219359213425,-0.5956845058484489,-0.7288646041701987
144,245.6,-0.2603643668418376,-0.25324678759111713,-0.3847916596033228,-0.6891708679437192,-0.8644106458721817
145,245.5,-0.26340651974911,-0.26267501271401933,-0.43638423461603665,-0.6990375233090355,-0.9014955246651974
146,245.4,-0.2858873266655366,-0.34269445668757414,-0.44762147821664683,-0.6889990506865572,-0.8700075436514664
147,245.3,-0.3060298389557552,-0.43042592812341074,-0.4263832853025937,-0.6779296745211052,-0.6865975589082896
148,245.2,-0.32481519240549245,-0.4455813951517207,-0.32056755382268176,-0.7440457450415325,-0.8576525004238008
149,245.1,-0.3218749449059163,-0.46581238345482295,-0.3360311069672827,-0.7899959993219191,-0.8763667570774708
150,245.0,-0.3336509442278352,-0.49837669096457027,-0.35541683336158664,-0.8061724953381929,-0.963563027631802
151,244.9,-0.31747563315816235,-0.5238530428886252,-0.33545443295473815,-0.873153576877437,-1.1010089337175795
152,244.8,-0.3274252347855569,-0.5094835904390576,-0.3479516697745381,-0.8289827174097305,-1.0320371418884557
153,244.7,-0.3392841803695542,-0.5008018816748602,-0.48385319545685723,-0.862526580776403,-1.1309762332598745
154,244.6,-0.35986196304458384,-0.5389690116968978,-0.5636553992202069,-0.8806700881505343,-1.2888150703509071
155,244.5,-0.36653005255127996,-0.5840068570944229,-0.6041094761824037,-0.8788551449398204,-1.3380022037633497
156,244.4,-0.40690039328699773,-0.611859026953721,-0.6622390066112901,-0.9390484573656551,-1.4256566536701136
157,244.3,-0.436240698084421,-0.6586511857942025,-0.6344966418036956,-0.959314994066791,-1.4260200372944567
158,244.2,-0.4676761464655027,-0.6299033937955586,-0.5629317918291237,-0.9552190286489237,-1.458617918291236
159,244.1,-0.47709378606543484,-0.6854232768265808,-0.550816107814884,-0.96432336836752,-1.3609980674690627
160,244.0,-0.4821186706221394,-0.6716184514324461,-0.5430819613493812,-0.9617026614680454,-1.3317496355314462
161,243.9,-0.48395715477199536,-0.7013039311747754,-0.6891554636379049,-0.979184573656552,-1.3559659942363116
162,243.8,-0.5076797067299542,-0.7533801618918461,-0.711305670452619,-0.937170317002882,-1.2797620783183592
163,243.7,-0.5358482573317511,-0.7734413078487881,-0.6934722241057807,-0.866405305984065,-1.1735829632141042
164,243.6,-0.5652015175453468,-0.7859912747923378,-0.704822827597898,-0.9373974317680964,-1.1435090184777084
165,243.5,-0.5754738986268858,-0.867232398711646,-0.7521480149177828,-0.9177668164095609,-1.083203136124767
166,243.4,-0.6068651090015258,-0.8976766392608918,-0.8294124580437364,-0.9653542719104934,-0.997416952025767
167,243.3,-0.6115154714358366,-0.9597378225122905,-0.8134583370062723,-0.9651864044753347,-1.0999503814205798
168,243.2,-0.6141231439226988,-0.9603895431429057,-0.7079190930666216,-0.9693238430242416,-1.131714849974572
169,243.1,-0.6345887516528226,-0.9534378564163418,-0.578712515680624,-0.9959693422614002,-1.1413721647736905
170,243.0,-0.6313487916596033,-0.9692738777758942,-0.5436444160027124,-1.0486362688591286,-1.1366363281912186
171,242.9,-0.6433377653839634,-1.001744574504153,-0.61708977623326,-1.0341759705034752,-1.1474311917274118
172,242.8,-0.6351961552805561,-0.9669381505339888,-0.4978829632141041,-1.0222435582302085,-1.176229343956603
173,242.7,-0.6683049852517376,-0.9858751771486695,-0.4696606950330565,-0.9845049838955756,-1.1472652992032553
174,242.6,-0.6804589825394135,-0.9897706890998477,-0.42123785217833537,-0.9708859976267166,-1.1030904899135447
175,242.5,-0.6831206095948466,-1.000372603831158,-0.43471977962366504,-1.0179125784031193,-1.1296016952025767
176,242.4,-0.7039434392269877,-1.027559623665028,-0.4808742397016444,-0.9827078148838787,-1.1902670113578573
177,242.3,-0.7721246346838448,-1.1485292422444484,-0.6165830140701815,-0.9625025004238007,-1.219772181725716
178,242.2,-0.7520905845058484,-1.111243515002543,-0.5860323258179353,-0.947242363112392,-1.2447113578572642
179,242.1,-0.761735180878115,-1.0517925716223089,-0.6613510866248516,-1.0072954568570944,-1.2641602814036277
180,242.0,-0.7441855687404646,-1.0366218977792847,-0.6039653076792676,-0.9995281318867604,-1.3699957619935583
181,241.9,-0.731325501271402,-1.0006285522969995,-0.6065868045431431,-0.9703152483471776,-1.3536750974741485
182,241.8,-0.7554845875572131,-1.0467437116460419,-0.6820580284794033,-1.1009694354975421,-1.5560481776572304
183,241.7,-0.7749313781996949,-1.0413646465502628,-0.6834021529072726,-1.0543279623665027,-1.428468926936769
184,241.6,-0.8217165458552298,-1.0496738870995084,-0.6823293812510596,-1.0381020935751821,-1.2658626546872354
185,241.5,-0.8653145231395151,-1.1187657535175455,-0.5770342363112393,-1.1009516612985253,-1.279078759111714
186,241.4,-0.8516234921173081,-1.0485394982200376,-0.42049015087302943,-1.0666435073741314,-1.1968276657060517
187,241.3,-0.8479635870486524,-1.068343905746737,-0.2543132395321241,-1.074545126292592,-1.0783053568401424
188,241.2,-0.8211672046109512,-1.0060690371249366,-0.333428174266825,-1.0770512883539585,-0.9648230208509917
189,241.1,-0.8069225665367011,-0.9768541786743516,-0.3221553822681811,-1.104530200033904,-1.0600769282929314
190,241.0,-0.817931510425496,-1.0302853958298017,-0.43885682319037134,-1.16071049330395,-1.094317935243262
191,240.9,-0.8391041362942873,-1.0835013476860484,-0.5979951517206307,-1.1575447109679609,-1.1135338192914055
192,240.8,-0.836182847940329,-1.0843801830818784,-0.5544167655534837,-1.1873303186980846,-1.1216112052890321
193,240.7,-0.8313166672317341,-1.1165435836582474,-0.3879989150703509,-1.2273005424648247,-1.0853755382268182
194,240.6,-0.8159471198508222,-1.0868863451432447,-0.18141137480928982,-1.2422980166129856,-1.036927021529073
195,240.5,-0.8141878691303611,-1.011742956433294,-0.091797813188676,-1.2773013392100359,-1.0259307170706902
196,240.4,-0.8065552330903544,-1.0235548991354468,-0.08307660620444153,-1.3107286828275981,-1.1033867265638246
197,240.3,-0.8307494727919985,-0.9744052890320395,-0.054511493473469896,-1.3511215375487373,-1.0756076284115954
198,240.2,-0.8288717274114257,-1.0072816324800813,-0.15497916596033215,-1.356321478216647,-1.0253540430581458
199,240.1,-0.8323736395999323,-1.029100449228683,-0.15489621969825407,-1.35703442108832,-1.0229880996779115
200,240.0,-0.8703495982369894,-0.9930642481776573,-0.30730010171215466,-1.352203788777759,-1.0053639938972707
201,239.9,-0.9054698355653502,-1.0259840396677404,-0.418175555178844,-1.4062531530767928,-1.04125602644516
202,239.8,-0.9411517375826411,-1.0186531700288186,-0.5084092388540431,-1.4167182064756743,-1.1705297508052213
203,239.7,-0.9511250381420581,-1.0051961264621123,-0.5174187828445499,-1.4452931937616549,-1.3071975419562636
204,239.6,-0.9763256924902526,-1.032110213595525,-0.5888315646719784,-1.5139983726055266,-1.2603526529920326
205,239.5,-0.9907536023054755,-1.075728097982709,-0.7882580776402782,-1.5474099169350743,-1.2209887269028652
206,239.4,-1.0179331174775386,-1.083572444482116,-0.7526346329886423,-1.5560876758772675,-1.38819259196474
207,239.3,-1.036448303102221,-1.0683498304797425,-0.6779987964061706,-1.4971958298016614,-1.22363115782336
208,239.2,-1.0790044753348025,-1.0750526784200711,-0.6900062552975081,-1.5509055094083746,-1.1128465502627567
209,239.1,-1.0811563383624343,-1.0742192659772845,-0.7217154263434482,-1.538838803186981,-1.1100856246821498
210,239.0,-1.0825853839633837,-1.0854960077979319,-0.7298441600271233,-1.5963521613832854,-1.1809059332090184
211,238.9,-1.1160308967621633,-1.1120427614849975,-0.7037911340905237,-1.5461203000508563,-1.0594133581963046
212,238.8,-1.1712746872351247,-1.167383717579251,-0.7721388540430582,-1.5326474571961353,-1.3172498389557556
213,238.7,-1.2000025326326496,-1.178828326835057,-0.786476707916596,-1.5824645872181728,-1.3541846245126292
214,238.6,-1.2372825326326498,-1.2297672063061538,-0.8806641634175285,-1.5109728089506698,-1.147308747245296
215,238.5,-1.2433984370232243,-1.2537307764027805,-0.7731737074080354,-1.489890634005764,-1.0984060010171217
216,238.4,-1.2540882352941176,-1.2652899304966945,-0.7722770978131887,-1.5852985845058487,-1.2273637396168842
217,238.3,-1.2709010476351925,-1.2721270723851503,-0.7269489404983897,-1.6327813697236822,-1.385348720122055
218,238.2,-1.2870092117308018,-1.2919927021529076,-0.901914205797593,-1.6172467197830145,-1.2748366502797088
219,238.1,-1.302881966434989,-1.3255187913205628,-0.9150513137819971,-1.6098348787930161,-1.3217881844380404
220,238.0,-1.327124393965079,-1.357855984065096,-0.9812661298525175,-1.6359590015256824,-1.286832259705035
221,237.9,-1.3652938938803187,-1.3334302847940331,-0.8741706560433974,-1.6484029157484321,-1.4259370910323785
222,237.8,-1.3840895168672656,-1.3082027716562132,-0.8388118494660113,-1.6671685200881508,-1.4153476182403801
223,237.7,-1.4174923715884047,-1.3699977369045602,-0.9292983217494492,-1.6443563231056113,-1.3920278691303611
224,237.6,-1.426149591456179,-1.358831590100017,-0.7761953212408883,-1.687867562298695,-1.430601830818783
225,237.5,-1.4552155416172234,-1.4041005000847602,-0.7588753517545347,-1.6538971181556195,-1.5030494660111886
226,237.4,-1.4770351483302255,-1.4223190540769624,-0.8166967960671301,-1.5863670113578574,-1.5437997796236649
227,237.3,-1.5094647669096461,-1.4247521444312599,-0.9317630106797764,-1.6036237836921514,-1.4760800813697237
228,237.2,-1.5595342905577216,-1.4975513137819971,-1.0985639938972707,-1.6262503390405152,-1.6451522122393625
229,237.1,-1.62435955924733,-1.5980268859128668,-1.1473166468893032,-1.6285116121376504,-1.4780233937955587
230,237.0,-1.6423754873707408,-1.626990930666215,-1.2257206136633327,-1.6401517375826409,-1.5038315307679266
231,236.9,-1.6716460383115785,-1.6339880403458213,-1.1801436175622988,-1.6263984573656556,-1.5859957280895067
232,236.8,-1.7203923715884049,-1.672097897948805,-1.2923264621122226,-1.620722563146296,-1.4713007967452112
233,236.7,-1.742255426343448,-1.640274182064757,-1.289048109849127,-1.662432683505679,-1.546398762502119
234,236.6,-1.7335737175792507,-1.6352184098999831,-1.2012277674182066,-1.6345331157823357,-1.4995657230038992
235,236.5,-1.7237133819291406,-1.656049771147652,-1.2237141040854382,-1.618186777419902,-1.4826288862519073
236,236.4,-1.7834891981691814,-1.749303093744703,-1.2195628411595183,-1.6194566451941008,-1.5574859128665877
237,236.3,-1.8448891812171553,-1.8981620105102563,-1.4878347516528228,-1.6469493812510596,-1.430459637226649
238,236.2,-1.8847626343448043,-1.9324760891676558,-1.4497308187828448,-1.6740412103746398,-1.4300646550262759
239,236.1,-1.9000555551788443,-2.0008455331412103,-1.2555852178335312,-1.7384509577894556,-1.550490778097983
240,236.0,-1.941458379386337,-2.0646173843024243,-1.3418414307509752,-1.7301721308696392,-1.4028424817765723
241,235.9,-1.9644795219528732,-2.099221774877098,-1.4130843702322429,-1.7356327597897951,-1.3321248686218004
242,235.8,-1.9775407933548064,-2.1763104509238858,-1.5584773181895237,-1.774832768265808,-1.3473474826241736
243,235.7,-2.01722939481268,-2.1889321071368033,-1.6527042719104936,-1.7561994829632142,-1.2512522630954404
244,235.6,-2.056331842685201,-2.2463012968299716,-1.736104763519241,-1.7371870147482629,-1.1304904051534161
245,235.5,-2.0735657060518733,-2.2322517799627057,-1.7497671978301408,-1.8382827089337177,-1.2957233090354299
246,235.4,-2.0860242346160365,-2.2384747245295817,-1.770440566197661,-1.8632712578403121,-1.117337497880997
247,235.3,-2.107771954568571,-2.3202162908967625,-1.8901596711307007,-1.913696660450924,-1.2806784370232245
248,235.2,-2.1231620410239027,-2.300629123580268,-1.7424718765892526,-1.9629588404814375,-1.3366197660620447
249,235.1,-2.1690502830988305,-2.3016343532802166,-1.8269901678250553,-1.983738854043058,-1.3130235294117647
250,235.0,-2.1736763146295983,-2.369247406340058,-1.942546160366164,-1.9214106628242076,-1.2638442956433293
251,234.9,-2.240043593829463,-2.4077640956094255,-1.9157545177148672,-1.9523970164434654,-1.4140165282251231
252,234.8,-2.2932887743685373,-2.4659291744363454,-1.9729874385489068,-1.984840854382099,-1.3657418036955418
253,234.7,-2.3017722020681473,-2.479435590778098,-2.110358298016613,-2.0693453212408883,-1.3630045770469572
254,234.6,-2.338146112900492,-2.4992538226818106,-2.189899813527717,-2.0378119172741145,-1.3894604848279373
255,234.5,-2.38737116460417,-2.540535387353789,-2.2788893032717414,-2.023349644007459,-1.4352547211391762
256,234.4,-2.4167760094931348,-2.55754529581285,-2.2772224783861676,-2.0244457196134937,-1.500079199864384
257,234.3,-2.4688093846414647,-2.583866909645703,-2.4109121037463983,-2.014130759450755,-1.5099616545177148
258,234.2,-2.4839063943041197,-2.6018405746736737,-2.4094467197830145,-2.0434423885404307,-1.595712290218681
259,234.1,-2.5442059569418545,-2.6083419816918125,-2.4244402441091712,-2.097639871164604,-1.6549398711646044
260,234.0,-2.601412018986269,-2.6336524410917104,-2.409146533310731,-2.2057919223597224,-1.7391777250381422
261,233.9,-2.638086116290897,-2.6795394982200373,-2.4316447194439736,-2.208855009323614,-1.8340919477877606
262,233.8,-2.642015399220207,-2.6858276148499747,-2.40375502627564,-2.332952491947788,-1.9944231225631468
263,233.7,-2.6715537480928973,-2.6453656382437702,-2.290564977114766,-2.390315756907951,-2.166204831327344
264,233.6,-2.73654253941346,-2.768892371588405,-2.439137531785048,-2.4189183929479574,-2.246117630106798
265,233.5,-2.7317047974232924,-2.6967212239362603,-2.2260999321918975,-2.516885828106459,-2.354224258348873
266,233.4,-2.7669206204441434,-2.7382318782844552,-2.307079182912359,-2.6017991015426345,-2.422647024919478
267,233.3,-2.824011347686049,-2.88050446685879,-2.4406898118325144,-2.654385056789287,-2.545458840481438
268,233.2,-2.861370344126123,-2.878020028818444,-2.4873727580945926,-2.7214253856585864,-2.6140711985082223
269,233.1,-2.863910079674521,-2.8535607560603498,-2.48375867096118,-2.7500378962536027,-2.5848227665706056
270,233.0,-2.8769587116460418,-2.8715482454653336,-2.5024689777928466,-2.811013273436176,-2.622203882013901
271,232.9,-2.887212449567723,-2.845222681810477,-2.519950889981353,-2.858045778945584,-2.808746075606035
272,232.8,-2.91414154602475,-2.784097211391762,-2.593867858959146,-2.8652877775894225,-2.8156464146465496
273,232.7,-2.967662424139685,-2.7759230547550433,-2.737771724021021,-2.814886073910833,-2.7911140701813872
274,232.6,-2.9938039260891673,-2.7801138159010006,-2.793535311069673,-2.8939121376504495,-2.934749347347009
275,232.5,-3.0558572096965593,-2.821590896762163,-2.9154347177487714,-2.930724478725208,-3.037602712324123
276,232.4,-3.106444949991524,-2.9055206645194107,-3.1281642312256315,-2.984317638582811,-3.1885530598406513
277,232.3,-3.155938589591456,-3.004114146465503,-3.1890428377691142,-3.048393626038312,-3.3497255467028317
278,232.2,-3.1718224037972536,-3.0126200881505345,-3.145962129174437,-3.099214010849297,-3.39049955924733
279,232.1,-3.2023268791320567,-3.00378236141719,-3.1408471096796076,-3.170182437701305,-3.501706797762333
280,232.0,-3.238590194948297,-3.017774605865401,-3.1730737074080357,-3.1571105017799628,-3.3789897779284623
281,231.9,-3.306901576538397,-3.1371263773520943,-3.23660264451602,-3.193733251398543,-3.4672446007797935
282,231.8,-3.3639512256314634,-3.142296694354976,-3.3678078318359046,-3.313128470927276,-3.554124885573826
283,231.7,-3.406806004407527,-3.229487040176301,-3.5157247160535685,-3.3937798864214277,-3.65819479572809
284,231.6,-3.4559852381759617,-3.255980471266317,-3.486752771656213,-3.400129225292423,-3.6451406340057644
285,231.5,-3.4911813120867947,-3.2437636718087814,-3.5088085777250386,-3.4314730378030176,-3.6403652992032547
286,231.4,-3.508728001356163,-3.245169808442109,-3.4177335819630446,-3.4531121376504497,-3.6884622817426687
287,231.3,-3.547343041193423,-3.283684522800475,-3.3714100695033062,-3.5236085607730123,-3.68572110527208
288,231.2,-3.593450893371758,-3.2890898542125786,-3.289360417019834,-3.4955588998135285,-3.743376657060519
289,231.1,-3.647707228343787,-3.353357408035261,-3.415604627903034,-3.649285972198678,-3.938497864044754
290,231.0,-3.639982166468893,-3.4325138159010002,-3.4839010001695208,-3.7769777928462456,-3.958116629937278
291,230.9,-3.706117196134939,-3.487414366841838,-3.5407349889811837,-3.799314036277336,-4.06464332937786
292,230.8,-3.752447818274284,-3.5429468893032725,-3.5068020681471443,-3.813774334632989,-4.132825156806239
293,230.7,-3.8238748194609253,-3.6141384810984922,-3.630897575860316,-3.8713094168503144,-4.125134853364978
294,230.6,-3.871554700796745,-3.6933857348703176,-3.8009650618748942,-3.923761078148839,-4.036852381759621
295,230.5,-3.903445563654857,-3.7253792931005254,-3.778332581793525,-3.9417762163078494,-4.167520393286997
296,230.4,-3.9452346804543144,-3.800998635361926,-3.848836904560096,-3.956481403627734,-4.121252178335311
297,230.3,-4.01562761824038,-3.8159664858450593,-3.994186404475336,-3.9825087557213084,-4.019658806577386
298,230.2,-4.0291138904899135,-3.8293603322597054,-4.076587591117139,-3.9976148499745725,-4.004211052720801
299,230.1,-4.05280176301068,-3.8185496694354977,-4.000695711137482,-4.035084836412953,-4.029857246991016
300,230.0,-4.138775958637058,-3.9709594761824043,-4.094673826072216,-4.063294465163587,-4.12565622986947
301,229.9,-4.167417697914901,-3.997377860654348,-4.083365485675539,-4.03351478216647,-4.150149076114595
302,229.8,-4.210951056111205,-4.0423228852347854,-4.041252483471775,-4.158982853025937,-4.247397643668419
303,229.7,-4.296743559925411,-4.111470444143076,-4.185709323614173,-4.196741176470589,-4.309129411764706
304,229.6,-4.373882793693847,-4.195066451941007,-4.239738938803187,-4.301990108492967,-4.4518878284455
305,229.5,-4.420014344804204,-4.215046626546873,-4.160572656382439,-4.230069774538057,-4.371560298355654
306,229.4,-4.445953615867096,-4.310762663163248,-4.196816223088659,-4.25349024410917,-4.336323936260383
307,229.3,-4.4649182912358025,-4.410667486014579,-4.3615514493982035,-4.321255365316155,-4.389658382776743
308,229.2,-4.49913480928971,-4.463504254958468,-4.350902729276148,-4.357338964231226,-4.452859484658417
309,229.1,-4.49812760467876,-4.5022816324800825,-4.142016392608916,-4.476971173080183,-4.401259010001695
310,229.0,-4.524073985421258,-4.432182166468893,-3.943083607391083,-4.407260764536362,-4.249435751822342
311,228.9,-4.531178925241567,-4.3948839972876765,-3.859047194439736,-4.402902135955247,-4.289024817765724
312,228.8,-4.571265668757417,-4.4060126207831845,-3.8932329038820144,-4.415602788608239,-4.317427987794542
313,228.7,-4.635453436175623,-4.498051373114088,-4.061037141888456,-4.457567672486863,-4.516574063400577
314,228.6,-4.739930177996271,-4.639998101373115,-4.139579352432616,-4.481728733683676,-4.3741987794541455
315,228.5,-4.756009903373453,-4.614018147143583,-4.1168876250211905,-4.499137574165114,-4.344041888455671
316,228.4,-4.804557955585692,-4.713289023563316,-4.100993541278183,-4.558564621122224,-4.210067875911172
317,228.3,-4.837232463129343,-4.700357306323106,-4.085281149347347,-4.565773046279031,-4.191464214273606
318,228.2,-4.905437989489744,-4.735530471266316,-4.157246906255298,-4.656662400406849,-4.3672786913036115
319,228.1,-4.941139640617054,-4.818721622308866,-4.2667122732666565,-4.759671783353111,-4.483399508391252
320,228.0,-4.955000355992541,-4.800485294117648,-4.311724444821157,-4.867101017121547,-4.484730598406509
321,227.9,-4.96981613832853,-4.826958976097644,-4.366923207323276,-4.922998898118325,-4.481428547211392
322,227.8,-4.988025607730124,-4.92501528225123,-4.413693049669436,-4.930938040345822,-4.4021951178165795
323,227.7,-5.025914670283099,-4.971747601288354,-4.430689133751484,-4.905777674182066,-4.420087811493474
324,227.6,-5.096740508560773,-5.002155305984066,-4.4694645363620955,-4.8778425580606894,-4.462133666723174
325,227.5,-5.123807848787931,-5.006429013392101,-4.515258772673334,-4.999682717409731,-4.4745124088828625
326,227.4,-5.137175626377352,-4.955539506696051,-4.594934582132566,-5.034603093744703,-4.347968011527379
327,227.3,-5.1440040786573995,-4.9694902780132235,-4.495296372266486,-5.059854305814545,-4.420628937107985
328,227.2,-5.1862892931005256,-5.0392599338871,-4.439003509069335,-5.039759586370572,-4.539735819630446
329,227.1,-5.269000145787422,-5.091855763688762,-4.693695931513816,-5.082745499237159,-4.4773523309035435
330,227.0,-5.313195494151551,-5.042731827428378,-4.682186150194949,-5.13268309883031,-4.469950364468554
331,226.9,-5.32453622308866,-5.124564239701645,-4.637537362264791,-5.140067291066282,-4.582713832853027
332,226.8,-5.373228048821836,-5.12734491439227,-4.744530140701814,-5.230188404814376,-4.625581251059502
333,226.7,-5.415545651805391,-5.161982878453975,-4.66102695372097,-5.178698525173759,-4.550645228004746
334,226.6,-5.385007997965756,-5.071794617731819,-4.575446160366165,-5.268084972029158,-4.545079928801492
335,226.5,-5.417089242244448,-5.137719121885065,-4.606890693337854,-5.368955526360401,-4.535071079844042
336,226.4,-5.457834816070521,-5.163252746228176,-4.703933870147483,-5.328625868791321,-4.470329547380913
337,226.3,-5.4405322258009825,-5.140831581624004,-4.673863875233091,-5.315579606713003,-4.396325682319038
338,226.2,-5.459468462451264,-5.186236760467876,-4.850227377521614,-5.232074444821157,-4.2109091879979665
339,226.1,-5.495997996270555,-5.229471512120699,-4.979433954907612,-5.34416249364299,-4.280726241735888
340,226.0,-5.541943905746737,-5.298755339888117,-5.04003212408883,-5.40980458552297,-4.371564248177658
341,225.9,-5.579413497202917,-5.2261615612815735,-4.95677777589422,-5.393705111035769,-4.425313426004409
342,225.8,-5.585376148499746,-5.262969952534329,-5.002903797253771,-5.390341837599594,-4.244992202068149
343,225.7,-5.614831551110358,-5.2566443125953555,-5.062099779623665,-5.345452110527209,-4.417125444990678
344,225.6,-5.666969991523987,-5.291582463129345,-5.176569571113749,-5.437787099508392,-4.3145643668418385
345,225.5,-5.7019867435158496,-5.30235955246652,-5.200572639430412,-5.4906692914053234,-4.353418765892525
346,225.4,-5.7041283370062725,-5.3165018901508745,-5.202156518053909,-5.635878572639432,-4.495126529920326
347,225.3,-5.697084224444821,-5.26745102559756,-5.2417850822173255,-5.7118336497711475,-4.677173826072216
348,225.2,-5.692106658755722,-5.245172054585525,-5.194778250550941,-5.740969511781659,-4.899007679267673
349,225.1,-5.71081933548059,-5.232844660111884,-5.175692710628922,-5.673504577046958,-4.898292761484998
350,225.0,-5.732739267672487,-5.215402246143415,-5.097715324631294,-5.600962146126464,-5.09873832853026
351,224.9,-5.727973412442787,-5.217153992202069,-5.040865536531617,-5.586039718596374,-5.047998915070351
352,224.8,-5.751903014070182,-5.259440786573996,-5.089811730801832,-5.596453424309205,-4.99709755890829
353,224.7,-5.7820196168842175,-5.284806543481946,-5.100294558399729,-5.557980183081878,-5.127161247669098
354,224.6,-5.83721047974233,-5.351825148330226,-5.195584014239702,-5.556716240040686,-5.266313476860486
355,224.5,-5.862138596372267,-5.313642219020173,-5.133082030852687,-5.547118172571622,-5.10638518392948
356,224.4,-5.910154212578403,-5.311355272080014,-5.212125868791321,-5.574920969655874,-5.038400847601289
357,224.3,-5.899862556365486,-5.332076038311579,-5.150279555856925,-5.514239854212578,-4.8838206136633335
358,224.2,-5.94523811154433,-5.4081891083234455,-5.271104610951009,-5.532332013900662,-4.920557908120021
359,224.1,-5.981671269706731,-5.493347270723852,-5.346072232581794,-5.4829552890320405,-4.938363705712833
360,224.0,-5.990863295473808,-5.550947525004238,-5.271049313442956,-5.505595668757417,-4.9905171554500765
361,223.9,-5.97767799966096,-5.5391355823020865,-5.284751245973894,-5.529952246143416,-4.88581922359722
362,223.8,-5.957033859976267,-5.517148898118326,-5.157278640447535,-5.623035726394305,-4.776697491100187
363,223.7,-5.931581206984235,-5.5680226055263615,-5.106246940159349,-5.615051161213765,-4.93590296660451
364,223.6,-5.958888696389219,-5.533813197152059,-5.132623851500255,-5.656899525343279,-4.994478826919818
365,223.5,-6.019751503644685,-5.691282725885744,-5.3431296151890155,-5.543423114087134,-4.8930908459060865
366,223.4,-6.0443383556535,-5.77206448550602,-5.524560739108325,-5.564003661637566,-4.974579623665028
367,223.3,-6.046353554839803,-5.889178682827597,-5.621888303102222,-5.652471774877098,-5.049807933548061
368,223.2,-6.105539267672486,-5.950799855907782,-5.810895185624682,-5.550605865400916,-5.065567723342941
369,223.1,-6.132015714527887,-5.936493600610274,-5.732791405322936,-5.593182971690117,-5.128523936260383
370,223.0,-6.159320834039667,-5.966877606373962,-5.7990101712154605,-5.625291074758434,-5.283625546702832
371,222.9,-6.146118948974403,-5.988933412442788,-5.651989896592642,-5.6835608238684525,-5.435436955416172
372,222.8,-6.182437562298695,-6.020107382607222,-5.581900305136464,-5.742324300728939,-5.443277352093576
373,222.7,-6.176865153415834,-6.0117456094253265,-5.3551252246143415,-5.671737031700289,-5.53549779623665
374,222.6,-6.199059993219189,-6.036147609764368,-5.340692575012715,-5.669408611629091,-5.500466824885575
375,222.5,-6.219941122224105,-6.1268809459230384,-5.28035114426174,-5.67139932191897,-5.5977035429733855
376,222.4,-6.222553534497372,-6.071636760467876,-5.268726818104764,-5.746070706899475,-5.802146329886422
377,222.3,-6.22312230886591,-6.153062341074759,-5.450142142736057,-5.803402373283608,-5.782555212747924
378,222.2,-6.262893066621461,-6.289815053398883,-5.595238854043059,-5.686394821156128,-5.943956789286321
379,222.1,-6.231617586031531,-6.236431234107476,-5.450671418884558,-5.685215799288016,-5.817297847092729
380,222.0,-6.250722875063571,-6.2373298186133255,-5.431574029496525,-5.60738850652653,-5.6482928631971525
381,221.9,-6.275476409560944,-6.250275360230548,-5.345724648245466,-5.563999711815563,-5.736729377860654
382,221.8,-6.292828767587728,-6.317374936429903,-5.426561705373793,-5.530513120867944,-5.663910459399899
383,221.7,-6.2964009866079,-6.371333454822852,-5.492768621800305,-5.489251305305984,-5.640634158331921
384,221.6,-6.319352612307171,-6.364014434649942,-5.424649991523988,-5.636139260891676,-5.798062213934566
385,221.5,-6.326546028140363,-6.477089938972708,-5.501655721308697,-5.564434192235973,-5.75197569079505
386,221.4,-6.334016721478217,-6.435156653670115,-5.469887302932701,-5.592552975080523,-5.667757586031532
387,221.3,-6.337460966265469,-6.404506034921174,-5.429717613154772,-5.515450474656722,-5.572760417019834
388,221.2,-6.37529236141719,-6.456702932700458,-5.578112425834889,-5.55734623665028,-5.67424714358366
389,221.1,-6.386034297338532,-6.53545843363282,-5.667252008815055,-5.639123351415495,-5.884883251398542
390,221.0,-6.386489316833362,-6.485505034751653,-5.509203831157825,-5.600685658586201,-5.917141447703001
391,220.9,-6.363972961518902,-6.404271020511951,-5.358111290049162,-5.581341405322937,-5.767581437531785
392,220.8,-6.324505550093236,-6.328748448889643,-5.258887811493474,-5.665018384471945,-5.72022307170707
393,220.7,-6.3658941549415164,-6.2850298440413646,-5.417287523309035,-5.661696584166807,-5.714211442617394
394,220.6,-6.388062925919647,-6.277965587387694,-5.451188845567045,-5.682290956094254,-5.762667858959146
395,220.5,-6.374357833531106,-6.328940015256824,-5.387679657569079,-5.6918613748092906,-5.82691566367181
396,220.4,-6.385754649940669,-6.372145143244619,-5.52970340735718,-5.779415104254959,-6.094646448550603
397,220.3,-6.406065424648246,-6.373944287167317,-5.506877385997628,-5.820056797762334,-6.27609732157993
398,220.2,-6.391854755043227,-6.358857942024072,-5.4673436175623005,-5.844808357348704,-6.346810984912699
399,220.1,-6.39163435497542,-6.248324148160706,-5.3546986438379385,-5.913734726224785,-6.46100428886252
400,220.0,-6.424595619596543,-6.113724088828615,-5.390108798101374,-5.923204424478726,-6.5503690116968984
401,219.9,-6.398751934226141,-6.065783124258349,-5.2426026953720966,-5.896027674182065,-6.514303186980843
402,219.8,-6.394445838277675,-6.035130530598407,-5.272735887438549,-5.916580572978471,-6.554461027292763
403,219.7,-6.386706557043566,-6.0348797169011705,-5.35261313781997,-5.8381450076284125,-6.282966062044415
404,219.6,-6.406297674182064,-5.941505924733006,-5.3223180030513655,-5.872093727750467,-6.263374944905917
405,219.5,-6.3946480691642655,-5.865339532124089,-5.349109645702662,-5.8477904729615195,-6.248065434819462
406,219.4,-6.409961529072724,-5.826581903712494,-5.411141600271233,-5.921652144431261,-6.17056992710629
407,219.3,-6.379039952534329,-5.765669723681981,-5.571137040176302,-5.8218184183759965,-6.167840600101714
408,219.2,-6.378726336667233,-5.783094363451434,-5.60140452619088,-5.860587896253603,-6.137193931174776
409,219.1,-6.418670096626548,-5.856667697914901,-5.645065858620106,-5.886824588913375,-6.035268774368538
410,219.0,-6.393960800135617,-5.769773588743855,-5.490276284115952,-5.8673717155450085,-5.946990252585185
411,218.9,-6.438514002373283,-5.84864955924733,-5.64617180878115,-5.8454679776233265,-5.867871368028481
412,218.8,-6.4370667875911165,-5.829172986946941,-5.577358009832175,-5.875932954738092,-5.881521952873368
413,218.7,-6.406866448550603,-5.866637048652315,-5.523679928801492,-5.936104543142907,-5.85323332768266
414,218.6,-6.401110767926767,-5.7967725970503485,-5.516033073402272,-5.925254382098661,-5.773786607899645
415,218.5,-6.43495205289032,-5.858407594507543,-5.727107611459571,-5.952743168333617,-5.700157975928124
416,218.4,-6.453937267333445,-5.870124741481607,-5.987373232751314,-5.898788599762672,-5.517518206475674
417,218.3,-6.457978725207662,-5.819835607730124,-5.824308781149347,-5.89929417697915,-5.4925000339040535
418,218.2,-6.4418192134260055,-5.790101347686049,-5.781706001017121,-5.89737851330734,-5.442574283776912
419,218.1,-6.462164746567216,-5.824968401423971,-5.7885984404136295,-5.8505040006780815,-5.5218669605017805
420,218.0,-6.412716134938125,-5.728185912866588,-5.5839739616884225,-5.867976038311578,-5.611476572300391
421,217.9,-6.421347285980676,-5.679377962366503,-5.541576572300391,-5.80019511781658,-5.717051364638076
422,217.8,-6.451376992710629,-5.668346109510086,-5.480844109171047,-5.8981428038650625,-5.733427326665537
423,217.7,-6.493523963383625,-5.786155475504323,-5.7075757416511275,-5.938715375487372,-5.918255297508052
424,217.6,-6.484201593490423,-5.817850822173251,-5.769860484827938,-5.971121690116969,-5.987333734531278
425,217.5,-6.512540776402781,-5.9315148499745725,-5.847648279369386,-5.92799555856925,-6.061878725207663
426,217.4,-6.5063482454653325,-5.926026572300391,-5.8850570435667064,-5.9230365570435675,-6.088733565011019
427,217.3,-6.536491707068996,-5.901869460925582,-6.015432768265809,-5.874546567214783,-6.023470656043397
428,217.2,-6.50233127648754,-5.8435839125275475,-5.794704865231395,-5.791065104254959,-5.863380420410239
429,217.1,-6.519339210035598,-5.92340981522292,-6.033471605356841,-5.711659857602983,-5.641293778606545
430,217.0,-6.539471452788609,-5.973740422105443,-5.968635277165622,-5.727761307001186,-5.594460739108324
431,216.9,-6.5425049160874735,-6.008953085268691,-5.8659399050686565,-5.6556158331920665,-5.455581047635192
432,216.8,-6.517139949143924,-6.0264527716562135,-5.818151008645533,-5.596109789794881,-5.358727462281744
433,216.7,-6.530765255127987,-6.023032225800984,-5.9001019155789125,-5.688823961688422,-5.376920342430921
434,216.6,-6.537141057806408,-6.005102008815054,-6.029857518223428,-5.689525055094085,-5.343880081369725
435,216.5,-6.525294751652823,-5.923091854551619,-5.772739905068657,-5.66501443464994,-5.338859857602984
436,216.4,-6.571422352941177,-6.018424758433633,-5.870703390405154,-5.682924902525852,-5.440129343956603
437,216.3,-6.579112656382437,-6.104678996440075,-5.975551415494152,-5.687692337684354,-5.365888489574505
438,216.2,-6.58940826241736,-6.135710773012376,-6.081497491100187,-5.6821270384811,-5.471198643837939
439,216.1,-6.599021339210035,-6.186029530428886,-6.104836989320225,-5.642468850652654,-5.529375572130871
440,216.0,-6.625263956602814,-6.205600898457366,-6.063837836921512,-5.696374046448552,-5.450043397185964
441,215.9,-6.628315589082894,-6.217950016952027,-6.041928174266826,-5.690439438887949,-5.462307594507544
442,215.8,-6.619018498050519,-6.260787811493475,-6.006423224275301,-5.7410840566197665,-5.455766689269368
443,215.7,-6.5974137616545185,-6.161214773690457,-6.17642751313782,-5.721887921681642,-5.503164553314122
444,215.6,-6.597473008984575,-6.086967994575353,-6.064509306662147,-5.798083937955586,-5.59484782166469
445,215.5,-6.629494215968808,-6.04992853873538,-6.153834531276488,-5.784875733175116,-5.786580081369724
446,215.4,-6.655364760128835,-6.152858925241566,-6.113147414816071,-5.745095100864554,-5.7016470588235295
447,215.3,-6.690158742159689,-6.139873885404307,-6.191018155619597,-5.769325283946433,-5.671387472452958
448,215.2,-6.679732002034243,-6.1827709272758105,-6.1523138498050525,-5.878285073741313,-5.869083963383624
449,215.1,-6.650004851669774,-6.131717502966605,-5.971803034412613,-5.9138433463298865,-6.147210679776234
450,215.0,-6.661496463807425,-6.1456939481268025,-5.93837569079505,-5.961663841329039,-6.300874555009324
451,214.9,-6.665406787591118,-6.136648855738261,-6.101542837769114,-6.033398533649772,-6.525710272927617
452,214.8,-6.692090995083912,-6.14642269028649,-6.233186455331413,-6.102184683844721,-6.660359705034753
453,214.7,-6.675237894558401,-6.139443354805901,-6.103971978301407,-6.2023778437023225,-6.593777555517884
454,214.6,-6.6699072147821665,-6.2149481522291925,-6.273466740125445,-6.287129174436346,-6.649485845058486
455,214.5,-6.689932022376673,-6.306127818274284,-6.232542634344805,-6.308302195287338,-6.610663044583829
456,214.4,-6.692316924902527,-6.353543456518054,-6.338275419562638,-6.266143770130532,-6.679520291574844
457,214.3,-6.721626974063401,-6.362712968299713,-6.336983827767419,-6.239198084421089,-6.671565350059333
458,214.2,-6.743471859637228,-6.36649097304628,-6.348608153924395,-6.1863751398542135,-6.495020155958638
459,214.1,-6.764279521952873,-6.3788144176979165,-6.267399813527717,-6.299016163756568,-6.572578860823868
460,214.0,-6.786361396846924,-6.321073944736397,-6.189402678420072,-6.4127019155789124,-6.609529445668758
461,213.9,-6.784225333107306,-6.315417799627056,-6.190927309713512,-6.41111013731141,-6.610493202237669
462,213.8,-6.81563115782336,-6.3165948465841675,-6.349180878114935,-6.449705823020852,-6.690172961518901
463,213.7,-6.822759796575691,-6.264741583319207,-6.106598609933887,-6.551390040684862,-6.681277962366502
464,213.6,-6.822973876928294,-6.310186260383117,-6.128721562976777,-6.719117257162233,-6.798504729615189
465,213.5,-6.859495511103578,-6.350399398203087,-6.438316511273097,-6.846633310730633,-6.780367146974063
466,213.4,-6.911522566536703,-6.4706517291066294,-6.525252093575183,-6.8688846329886415,-6.864447007967452
467,213.3,-6.922029883031023,-6.582018935412782,-6.50155711137481,-6.78979932191897,-6.723853093744704
468,213.2,-6.981920244109172,-6.6742551788438735,-6.550590201729106,-6.793219867774199,-6.763675199186304
469,213.1,-7.0291071876589255,-6.760446219698254,-6.774793948126802,-6.8617631039159175,-6.88895170367859
470,213.0,-7.037291218850654,-6.733982412273267,-6.835897694524496,-6.988585963722665,-6.886925444990677
471,212.9,-7.0909550805221215,-6.783299889811834,-6.8614214443125965,-6.948700661129005,-6.954601695202577
472,212.8,-7.12809446685879,-6.778469257501272,-6.800333497202916,-7.013659433802341,-6.981586879132057
473,212.7,-7.149541210374641,-6.880431937616546,-6.791402949652484,-6.997660679776233,-7.004057416511273
474,212.6,-7.199102786913036,-6.933397075775556,-6.8918034751652835,-7.089395295812849,-7.137916884217665
475,212.5,-7.328378881166299,-7.020723690456011,-6.903645041532465,-7.1185074588913375,-7.0984621122224105
476,212.4,-7.402716111205288,-7.137247389388033,-6.9589109510086455,-7.087953610781489,-7.088465112730972
477,212.3,-7.455701393456518,-7.203195592473302,-7.098785997626718,-7.188231691812173,-7.080747160535685
478,212.2,-7.516679535514494,-7.204343015765385,-7.214085251737584,-7.16090484827937,-7.058047533480251
479,212.1,-7.528077141888457,-7.239689972876759,-7.237894778776064,-7.199395863705713,-7.088342668248856
480,212.0,-7.546108869299881,-7.33461604509239,-7.294203441261231,-7.1563250296660454,-7.1345200372944575
481,211.9,-7.619006784200711,-7.4329271147652145,-7.393462468214952,-7.202735438209867,-7.146448499745719
482,211.8,-7.680308811662993,-7.477878064078658,-7.439916324800815,-7.165253602305476,-7.019742159688083
483,211.7,-7.724061779962704,-7.561132412273267,-7.583516053568402,-7.091942931005254,-6.823708543820987
484,211.6,-7.795856114595694,-7.591788955755213,-7.521160213595525,-7.122676496016275,-6.756332480081371
485,211.5,-7.841882600440753,-7.695953661637567,-7.56118770978132,-7.135647711476522,-6.747792964909307
486,211.4,-7.946873135107645,-7.801009842346162,-7.703955606034921,-7.219739421935922,-6.732191167994575
487,211.3,-8.04637973690456,-7.888189128665875,-7.737424027801324,-7.173883963383625,-6.672078826919818
488,211.2,-8.113385307340227,-7.930513446346838,-8.037298464146467,-7.173840515341585,-6.7274079335480605
489,211.1,-8.207964190201729,-7.972905898457367,-8.080689233768435,-7.207615443295475,-6.707864214273607
490,211.0,-8.230181701983387,-8.003842286828275,-8.015733225970504,-7.33243376843533,-6.808079098152231
491,210.9,-8.312243835904392,-8.079937187658926,-8.176968120020344,-7.42685228852348,-7.069790354297338
492,210.8,-8.345431662315647,-8.167034317680965,-8.177093724360063,-7.474694507543652,-7.217612442786914
493,210.7,-8.446806687913206,-8.340586731649434,-8.299769666045094,-7.505033090354298,-7.268059569418547
494,210.6,-8.51547331649432,-8.45476364383794,-8.330158411595187,-7.467006179013393,-7.236204254958468
495,210.5,-8.638891192744532,-8.5794836184099,-8.465093020850993,-7.581272554670283,-7.199545956941854
496,210.4,-8.732520143414138,-8.63115321495169,-8.74850459908459,-7.601153983726056,-7.275765672147823
497,210.3,-8.763676734361756,-8.714100464485508,-8.736183129343958,-7.557948855738261,-7.3415420579759285
498,210.2,-8.873566470249195,-8.77324351924055,-8.740200888286154,-7.640889193083573,-7.4710448720122065
499,210.1,-9.005923978640448,-8.871710014409222,-8.902770427191049,-7.67971989320224,-7.516199237158841
500,210.0,-9.080164675029666,-8.87247983471775,-8.777283792168165,-7.803608035260215,-7.82298586201051
501,209.9,-9.191397982369892,-8.933164899983051,-8.819775977284285,-7.9080196050178,-8.041288574334635
502,209.8,-9.237489008306493,-8.929423826072217,-8.755929869469401,-7.949166875741651,-8.122753653161555
503,209.7,-9.31359180878115,-9.085771605356841,-8.774837667401256,-7.980481064587218,-8.23380684861841
504,209.6,-9.361665882352941,-9.098640125444991,-8.722249737243601,-8.06569452449568,-8.225425326326498
505,209.5,-9.461489022885235,-9.274948527716562,-9.09975042041024,-8.207749872859809,-8.224872351245976
506,209.4,-9.538237935243261,-9.275432183420921,-9.039890472961519,-8.354205322936092,-8.52204905916257
507,209.3,-9.619077362264791,-9.342486336667232,-9.191298999830481,-8.36530432276657,-8.610327580945922
508,209.2,-9.67918970333955,-9.44092577555518,-9.19376763858281,-8.428250661129006,-8.562862569927107
509,209.1,-9.742982488557383,-9.442770342430922,-9.157050093236142,-8.489867884387186,-8.51202836073911
510,209.0,-9.812112273266655,-9.534445711137483,-9.179248092897101,-8.542169452449567,-8.488064790642483
511,208.9,-9.867087475843363,-9.530144354975421,-8.98421378199695,-8.640271181556196,-8.70571578233599
512,208.8,-9.965042271571454,-9.494554483810816,-8.881593456518056,-8.738819240549246,-8.926787319884726
513,208.7,-10.069947174097306,-9.512717740294965,-8.977522783522632,-8.836192227496186,-8.812657213086965
514,208.6,-10.174006024749957,-9.55226730801831,-8.930069621969826,-8.949660739108323,-8.87508414985591
515,208.5,-10.255212785217834,-9.655807942024074,-9.173607747075778,-9.13883153924394,-8.986970757755554
516,208.4,-10.315917599593153,-9.717770774707578,-9.317677504661807,-9.236184777080863,-9.280067299542296
517,208.3,-10.42181469740634,-9.903635573826074,-9.558904983895578,-9.21675955246652,-9.278266180708593
518,208.2,-10.508728950669605,-9.956509866078997,-9.553861061196814,-9.259261612137651,-9.328590862858112
519,208.1,-10.65733705373792,-10.10482568231904,-9.917442176640108,-9.286493659942364,-9.307889845736566
520,208.0,-10.780923824377012,-10.27473912527547,-9.998555721308696,-9.386969232073234,-9.308150533988812
521,207.9,-10.848311737582641,-10.233098126801154,-10.005290167825057,-9.558109094761825,-9.274407204610952
522,207.8,-10.923479220206815,-10.341013188676047,-9.991319647397866,-9.619919859298186,-9.22613248008137
523,207.7,-11.045505811154433,-10.375813095439906,-10.044211713849807,-9.619459705034753,-9.380045194100695
524,207.6,-11.142868133581963,-10.4631811832514,-10.148720054246482,-9.643397601288354,-9.381155094083745
525,207.5,-11.251647021529074,-10.504893278521784,-10.219820800135617,-9.793838421766402,-9.528309662654687
526,207.4,-11.41597225631463,-10.5819069079505,-10.431080979827092,-9.943119969486355,-9.787098050517038
527,207.3,-11.468362695372099,-10.593776123071708,-10.327042668248856,-10.07126601966435,-10.024549499915242
528,207.2,-11.557029879640616,-10.673684972029157,-10.392775606034924,-10.09680951856247,-10.168496813019155
529,207.1,-11.656758935412782,-10.74767501271402,-10.45326713002204,-10.117405865400917,-10.279680352602139
530,207.0,-11.755375721308695,-10.812999143922701,-10.585376826580777,-10.192841540939142,-10.124835480589931
531,206.9,-11.813519471096798,-10.931440481437532,-10.70068398033565,-10.288683971859637,-10.167138074249875
532,206.8,-11.896855975589082,-11.122027292761485,-11.011511273097135,-10.32558518392948,-10.10206475673843
533,206.7,-11.955120589930496,-11.143407679267673,-11.006676690964571,-10.386108306492627,-9.828405289032041
534,206.6,-12.008549042210547,-11.222096033225972,-11.092285133073403,-10.541685870486523,-10.087027784370234
535,206.5,-12.081488035260215,-11.30332807255467,-11.104103000508562,-10.756579886421427,-10.242184692320734
536,206.4,-12.184999440583148,-11.34591307848788,-11.1781740125445,-10.864635166977456,-10.175882980166131
537,206.3,-12.250032469910156,-11.44589097304628,-11.178545295812851,-11.013217596202747,-10.37003648075945
538,206.2,-12.25625501949483,-11.471361400237328,-11.2629016443465,-11.147270605187321,-10.547731073063233
539,206.1,-12.36687689438888,-11.67383717579251,-11.307115951856249,-11.255570774707577,-10.73202186811324
540,206.0,-12.488719423631125,-11.77214429564333,-11.222226377352095,-11.277824071876587,-10.644090930666216
541,205.9,-12.52561392100356,-11.857764587218176,-11.408752771656212,-11.237527987794541,-10.861907814883878
542,205.8,-12.598805702661467,-11.89175675538227,-11.492654890659434,-11.284394600779793,-10.910810561112054
543,205.7,-12.637674321071367,-11.945065528055602,-11.564198016612986,-11.303671707068995,-10.744408509916937
544,205.6,-12.720110266146804,-12.14552689438888,-11.996482335989153,-11.356350483132736,-10.802170706899474
545,205.5,-12.804356809628754,-12.179783700627226,-11.952228530259367,-11.279390176301069,-10.625775606034924
546,205.4,-12.836486241735889,-12.30521424817766,-12.150477996270556,-11.218584641464656,-10.741469842346163
547,205.3,-12.936496524834718,-12.434572893710799,-12.16304238006442,-11.221578606543483,-10.485584573656553
548,205.2,-13.052274497372437,-12.443639710120358,-12.081127021529076,-11.23435825563655,-10.417888574334635
549,205.1,-13.110787160535683,-12.362589362603831,-11.94631959654179,-11.375353076792678,-10.578618681132397
550,205.0,-13.196689469401594,-12.431754695711138,-11.750100339040516,-11.481153008984576,-10.722834582132565
551,204.9,-13.24166451262926,-12.346661705373794,-11.820577013053061,-11.64605807764028,-11.192626411256146
552,204.8,-13.265416372266486,-12.272418876080694,-11.758276470588237,-11.672223673503984,-11.223510069503307
553,204.7,-13.326677321579929,-12.389924105780645,-12.027413392100357,-11.432433929479576,-11.163243685370402
554,204.6,-13.354871941006952,-12.483872597050349,-12.158709425326327,-11.38630593320902,-11.502150262756402
555,204.5,-13.378731235802679,-12.614222647906427,-12.185896050177998,-11.56736774877098,-11.472530547550434
556,204.4,-13.38117933548059,-12.692269155789118,-12.254263519240551,-11.75510278860824,-11.583046567214785
557,204.3,-13.450057121546022,-12.748970825563656,-12.309090998474318,-11.692831869808444,-11.262119579589763
558,204.2,-13.497191927445328,-12.787021435836584,-12.388154585522972,-11.900223198847266,-11.340100915409392
559,204.1,-13.524848581115444,-12.801556780810309,-12.438435819630447,-12.10877380064418,-11.481899525343279
560,204.0,-13.547906062044415,-12.826890939142228,-12.313376555348365,-12.258349610103409,-11.386108442108833
561,203.9,-13.584489313442958,-12.94396366333277,-12.436571503644688,-12.3036698677742,-11.653424495677234
562,203.8,-13.590259213426004,-12.957736692659775,-12.434375402610613,-12.262650966265472,-11.657176826580779
563,203.7,-13.624082329208342,-12.81431075606035,-12.406631852856417,-12.371488311578235,-11.753354992371591
564,203.6,-13.638351456179013,-12.713556721478218,-12.245490964570267,-12.49834079505001,-11.541731429055773
565,203.5,-13.665011964739788,-12.767706806238344,-12.336569910154266,-12.57910873029327,-11.84802827597898
566,203.4,-13.750904794032888,-12.849606365485679,-12.352171707068996,-12.50021498559078,-11.686685946770641
567,203.3,-13.810145804373626,-12.827807297847095,-12.221045516189184,-12.094528767587729,-11.300353856585863
568,203.2,-13.834715277165621,-12.824473648075946,-12.27176913036108,-11.923365205967114,-11.614645143244617
569,203.1,-13.869096897779286,-12.896642820817089,-12.352989320223767,-11.618444872012208,-11.67291686726564
570,203.0,-13.917404010849294,-13.000643609086287,-12.341854771995255,-11.45813147143584,-11.816473147991188
571,202.9,-13.94044253263265,-12.932773817596205,-12.540783607391086,-11.237164604170198,-11.587237328360741
572,202.8,-13.93042341413799,-12.80343097135108,-12.657686489235463,-10.864974851669775,-11.5645298016613
573,202.7,-13.95843713171724,-12.695348042041024,-12.461901712154607,-11.036266782505512,-11.03143812510595
574,202.6,-13.909784804204103,-12.70921586709612,-12.430864010849296,-11.221701051025597,-11.116774029496524
575,202.5,-13.928623085268688,-12.755857340227157,-12.614360891676558,-11.419480488218342,-11.263810103407359
576,202.4,-13.904330889981352,-12.72046496016274,-12.643269638921854,-10.965568918460757,-10.545025444990676
577,202.3,-13.887999165960332,-12.78477991184947,-12.696181454483815,-10.702965002542804,-11.225737769113408
578,202.2,-13.877994266824885,-12.720447185963724,-12.95432207153755,-10.774916935073742,-12.043441769791492
579,202.1,-13.857448872690284,-12.567691769791491,-12.727254704187152,-10.916443007289372,-11.60723132734362
580,202.0,-13.797274124427869,-12.592903483641296,-12.915961400237329,-10.751889472792001,-11.157931174775387
581,201.9,-13.75582074249873,-12.630752652992033,-12.974557009662655,-10.757352076623157,-10.37367821664689
582,201.8,-13.699409384641466,-12.746719427021532,-13.095777046957112,-10.82234244787252,-10.931108696389218
583,201.7,-13.595502207153755,-12.619448262417361,-13.006732259705037,-10.62223656551958,-9.379405322936092
584,201.6,-13.497409957619936,-12.647328081030684,-13.013040125444991,-10.458476945244959,-8.916762671639262
585,201.5,-13.438104170198336,-12.66627932700458,-12.874227580945924,-10.454862858111547,-7.4685209357518225
586,201.4,-13.394026526529922,-12.478668706560436,-12.792754602474997,-10.488772080013561,-8.354387014748262
587,201.3,-13.392495575521277,-12.342048313273438,-12.822544160027126,-11.807836862180032,-10.0225982878454
588,201.2,-13.357651825733175,-12.198140498389558,-12.68770513646381,-11.295122317341923,-10.919271079844044
589,201.1,-13.334426082386846,-12.165730233937955,-12.715863417528396,-13.039183997287678,-13.270675165282253
590,201.0,-13.26817571791829,-12.07619764366842,-12.907726021359554,-12.483684980505174,-14.401951585014409
591,200.9,-13.183564210883203,-11.98442747923377,-12.963031429055773,-11.29711895236481,-13.544603220884897
592,200.8,-13.15774185455162,-11.94289905068656,-12.942223766740128,-9.918471105272083,-13.838584522800476
593,200.7,-13.034783105611123,-11.857896906255299,-12.701083183590441,-9.319921003559926,-12.693779962705545
594,200.6,-12.932303393795559,-11.610150245804375,-12.647061468045433,-9.71462671639261,-12.898380742498729
595,200.5,-12.799045878962538,-11.62970581454484,-12.496699644007462,-8.636582047804716,-9.961688082725885
596,200.4,-12.62992556026445,-11.538867808103069,-12.307518969316835,-7.9516434141379895,-11.135022207153757
597,200.3,-12.493072127479238,-11.503516901169691,-12.457770198338702,-7.945461942702154,-12.923699101542638
598,200.2,-12.413895575521275,-11.400055263604004,-12.310054755043227,-5.9246342600440745,-7.756225970503476
599,200.1,-12.36335128326835,-11.183697838616716,-12.360719121885069,-5.6723196304458385,-7.635835395829802
600,200.0,-12.25789814544838,-11.237215951856246,-12.443345448381082,-7.005878284454994,-11.115352093575186
601,199.9,-12.087434887269032,-11.178213510764536,-12.407022885234786,-7.039116036616377,-10.685571961349382
602,199.8,-12.088426292591965,-10.993450711985085,-12.475967028309883,-7.4758676046787595,-12.23540311917274
603,199.7,-11.877198501440924,-11.013952263095442,-12.074195083912528,-6.236907187658925,-9.974682997118155
604,199.6,-11.763262725885744,-11.029259798270894,-11.9169961179861,-7.550519240549246,-11.525699101542635
605,199.5,-11.753303644685541,-11.171795050008477,-12.086850313612478,-5.928366841837601,-12.661272927614851
606,199.4,-11.648346604509241,-10.960927877606375,-11.979837786065437,-4.1398479403288695,-12.023969147313105
607,199.3,-11.516132632649603,-10.860865061874895,-11.617492964909308,-4.915474487201221,-14.011243092049503
608,199.2,-11.428601417189354,-10.734877589421936,-11.495230174605869,-5.830036023054756,-15.852373622647905
609,199.1,-11.36067632819122,-10.518871698592983,-11.096001915578912,-5.297343278521784,-12.401493134429566
610,199.0,-11.150343566706221,-10.221971478216648,-10.830905661976608,-4.783313442956434,-11.652725377182575
611,198.9,-10.995457616545178,-9.976258976097645,-10.538275199186305,-3.9758849042210547,-10.520734039667742
612,198.8,-10.902738704865232,-10.063646813019156,-10.630934073571792,-2.7804969486353617,-10.297778437023224
613,198.7,-10.684871262925919,-9.658169935582304,-10.16341734192236,-2.7330003390405153,-6.995450754365147
614,198.6,-10.492154707577557,-9.741657323275131,-10.303770317002883,-1.7280273775216142,-7.584487709781321
615,198.5,-10.433551198508223,-9.255305865400915,-9.893680047465674,-1.0196070520427194,-5.5371369723682
616,198.4,-10.230358135277166,-8.921095626377353,-9.759946974063402,-0.2285761993558234,-5.950959823698933
617,198.3,-10.162222915748433,-8.78154644007459,-9.395097965756909,-1.2188953212408882,-7.928951686726566
618,198.2,-9.868016473978642,-8.64869417697915,-9.39640140701814,0.34835455161891854,-2.9074244787252064
619,198.1,-9.654199179521955,-8.448542871673167,-8.868717036785897,-0.1089953381929142,-6.719042210544161
620,198.0,-9.3269888150534,-8.202707925072046,-8.535237514833025,2.7786365824716057,-1.854915409391421
621,197.9,-9.056775172063062,-8.41205244109171,-8.223248974402441,1.820715875572131,-0.06355263604000655
622,197.8,-8.910942213934565,-8.242887489404986,-8.277136395999324,2.977555543312426,0.2619521952873375
623,197.7,-8.895883122563147,-8.13601913036108,-8.046968418375997,1.2226259281234109,-2.0550528903203924
624,197.6,-8.48531958535345,-8.06451925495847,-7.960648613324293,2.0210409730462793,-7.6929103237836935
625,197.5,-8.348663485675539,-7.959196856246823,-7.878215038142059,2.840779922020682,-7.644406509577895
626,197.4,-8.000324496355315,-7.698498136972368,-7.885461776572302,2.411627021529073,-11.04283336158671
627,197.3,-7.954523150364468,-7.489811266316326,-7.888823075097475,0.5667007119850824,-9.367713849805053
628,197.2,-7.89144465095779,-6.855568993049671,-7.163952530937448,0.43102432615697595,-6.34720596711307
629,197.1,-7.753616876080692,-6.7052913002203764,-6.838592263095441,1.6751214866926603,-9.749740634005764
630,197.0,-7.460207192405492,-6.632967294456689,-6.692561813866758,4.470007636887608,-5.973394812680116
631,196.9,-7.385604850313613,-6.046640706899475,-6.128102230886592,5.049328030174607,-1.4407765723003902
632,196.8,-7.003712044075268,-5.82568687404645,-6.336414263434481,5.925728360739108,0.14792083403966683
633,196.7,-6.921082873707407,-5.238311608747246,-6.208959037124937,4.8904523648075955,-2.6120567892863193
634,196.6,-6.680751135107647,-4.925424286319715,-6.369356963892186,6.045419816918123,1.0525090693337855
635,196.5,-6.80173489404984,-5.392769003220885,-6.001987574165114,3.1176498050517036,3.141546228174267
636,196.4,-6.316133507374132,-4.890088981183252,-5.862507509747416,2.830477206306154,4.372069825394135
637,196.3,-6.07158738769283,-4.442957280895067,-5.587615697575861,3.3596672486862187,6.809046804543144
638,196.2,-5.767659644007459,-4.571571384980505,-4.988471147652145,2.1672100610272937,5.717011866418037
639,196.1,-6.050492968299713,-4.8123189608408214,-5.022352720800136,4.3495064671978305,8.953571062892017
640,196.0,-5.8188011493473475,-4.141137557213087,-4.275990405153416,4.03320867096118,6.456675283946431
641,195.9,-6.063184536362095,-3.0886482369893207,-5.590273927784371,3.553581785048314,7.065496897779285
642,195.8,-5.918288476012884,-2.5110144176979152,-5.22361590100017,4.5162689396507885,4.965518731988473
643,195.7,-5.584423451432446,-1.9074500169520259,-5.429318681132396,4.99053097982709,2.7149496524834715
644,195.6,-5.1735274182064765,-1.0611335056789286,-6.114972232581794,5.323123766740126,0.7097830140701813
645,195.5,-5.295958470927276,-1.0145749788099678,-5.0631859806746915,7.113076453636211,2.798172402102052
646,195.4,-5.025623173419224,-0.4403500533988812,-2.3947889303271745,8.619499067638582,3.4068399728767593
647,195.3,-4.797997301237498,0.11408073402271575,-3.4256134768604856,8.680681810476353,4.05765214443126
648,195.2,-3.96049126292592,-0.6417354805899306,-4.370948075945076,5.520715587387693,3.6016846923207333
649,195.1,-3.737074321071368,-0.4313748728598068,-2.561886150194949,6.498600669605018,1.123645363620954
650,195.0,-2.8895475053398885,-0.23985886590947622,-1.5920543600610275,4.579706043397186,3.217485506017968
651,194.9,-2.696891856246822,-0.10818562468214954,-0.050399728767587706,5.90130661129005,9.335476192575015
652,194.8,-2.2088692286828278,0.691758988811663,1.6174951635870487,7.586881301915579,17.19125663671809
653,194.7,-1.8773804170198338,2.491470698423462,2.7375031361247673,7.874268375995933,19.30929733853196
654,194.6,-1.1769845499237162,3.9129286913036117,5.130716087472454,7.474633285302594,20.925485506017967
655,194.5,-1.788554449906764,3.3462793270045776,3.7244688591286668,9.77302483471775,22.1216496016274
656,194.4,-0.4563308357348704,4.249416002712325,2.2733200542464824,8.565248262417361,16.305734192235978
657,194.3,0.7064872825902696,3.8239925241566373,0.8172181725716228,5.500725538226819,13.802850483132737
658,194.2,1.0349434209188,4.070143456518054,3.4692116121376513,5.131255238175963,16.35080166129853
659,194.1,1.2022144329547382,5.2925146211222245,7.545380522122396,5.804500423800645,14.435137989489746
660,194.0,1.2929663332768266,4.541848974402441,11.612780827258858,7.420609594846584,20.462052890320397
661,193.9,1.1321374809289708,3.554134760128836,8.713370537379218,7.926562044414308,20.008257840311916
662,193.8,1.1398277843702322,4.273847231734193,7.712343448042042,7.800602220715375,11.624843583658247
663,193.7,1.134037345312765,5.088391769791491,8.97692636040007,9.184185370401764,12.71765663671809
664,193.6,0.9403649330394982,3.58231081539244,4.989103119172741,10.936780640786576,16.326470757755555
665,193.5,0.4981207424987286,3.9691978555687406,4.666465858620105,13.662315816240042,13.67945014409222
666,193.4,0.7229817392778438,5.571480674690627,5.402499389727073,14.682554839803359,17.25214314290558
667,193.3,1.414010208509917,5.116382183420919,1.9430754365146639,11.525284370232242,13.952418392947957
668,193.2,2.1495010340735714,3.044297660620444,2.5447202237667406,13.250250635700967,15.395426614680455
669,193.1,2.6654978809967793,3.1553311069672834,4.6635113917613165,16.588245211052723,20.50931646041702
670,193.0,2.484232649601627,2.9759558654009157,3.840617324970334,15.175097643668419,18.648630361078148
671,192.9,1.4797526258687912,2.36348856585862,5.944047635192406,14.739708764197323,18.831752008815055
672,192.8,1.4086732090184777,1.98955496694355,4.358944566875742,11.33395499237159,14.498374639769454
673,192.7,1.3394155290727245,2.671183649771148,4.177458145448382,10.096377013053061,14.071912358026786
674,192.6,1.1245317036785896,2.557835607730124,4.845057060518732,11.292126377352094,11.694494744872014
675,192.5,-0.04178121715544998,1.7331483217494494,3.1733857433463304,11.15716095948466,12.27552146126462
676,192.4,-0.008067906424817788,1.1271508306492628,-0.05797153754873728,10.97011713849805,16.577284454992377
677,192.3,-0.9273518494660112,-1.260585692490253,-3.436274046448551,11.264675114426176,14.717984743176812
678,192.2,-0.6629034820071199,0.7112323104085441,-2.9100082389896595,9.868057552127482,7.706924292252925
679,192.1,-0.780473768435328,-1.9534456941854552,-4.988076165451772,9.967988048821836,8.190449652483471
680,192.0,-2.1091575521274795,-6.923070266146806,-10.965298355653502,10.988898542125785,11.596795897609766
681,191.9,-1.0360240922190203,-6.420277674182065,-11.425413120867944,8.671873707408038,11.402938633666725
682,191.8,-1.3690422749618578,-7.430819884726226,-8.374144024410917,8.108763383624344,10.631056518053908
683,191.7,-2.2213877945414477,-7.458310645872182,-4.708096982539414,6.282068070011867,7.938855075436514
684,191.6,-1.8372115172063064,-7.675787845397527,-3.0305325309374473,5.018073088659096,5.2060668418375995
685,191.5,-1.3163066214612649,-6.740568740464486,-6.449897389388033,4.053781318867605,2.8043736226479075
686,191.4,-1.4299595897609765,-4.537624639769453,-10.71306272249534,3.009323961688422,-0.9293117511442619
687,191.3,-1.4824598338701476,-4.006677716562129,-8.615201661298526,4.763787102898797,-3.6054970605187324
688,191.2,-2.3458616952025766,-7.270792846245128,-10.932483234446517,4.520077555517885,3.095985031361248
689,191.1,-2.4038616714697407,-6.067321579928801,-10.84920913714189,4.434368392947958,4.7520348025089
690,191.0,-1.9538821495168672,-4.909628750635701,-7.927944482115612,2.335743041193423,0.7582789286319714
691,190.9,-2.2197881166299376,-6.671703593829464,-11.583236158670962,4.981628081030683,4.552908476012885
692,190.8,-1.8735080115273777,-8.08739879640617,-7.88928362434311,2.866721562976777,-1.646546499406679
693,190.7,-1.7531403458213257,-6.782150491608747,-5.604746075606036,2.5502815731479918,-2.9904892354636385
694,190.6,-3.0537266757077473,-7.5039133158162405,-7.988716443464995,-0.3259393117477536,-6.8443147652144445
695,190.5,-3.5239490354297343,-6.180792066451941,-10.026646855399221,-0.11152322427530095,-6.965404458382777
696,190.4,-4.326516528225123,-6.3748942193592155,-12.406548906594338,-3.3150263604000676,-6.493428377691133
697,190.3,-3.238531737582641,-8.236646770639092,-12.151951279877949,-2.823392015595865,-6.0766036616375665
698,190.2,-3.19422895406001,-8.66190040684862,-16.59529564332938,-2.320698169181217,-3.092078657399559
699,190.1,-2.561483268350568,-10.121813866757078,-17.665776402780136,0.8395939142227493,-0.9188470927275824
